svm_type c_svc
kernel_type linear
nr_class 3
total_sv 5933
rho -0.0828499 0.774742 0.65365
label 1 -1 0
nr_sv 1989 1084 2860
SV
0.05987512525648465 0.314934396335636 144:1 822:1 1695:1 1818:1 1915:1 2561:1 3502:1 3602:1 4515:1 5104:1 13126:1 13558:1 15500:1 17624:1 18232:1 18495:1 
0.08856038779124903 0.1851063141679682 666:1 914:1 1374:1 1962:1 2089:1 2595:1 2895:1 3887:1 5094:1 7202:1 7279:1 7809:1 7830:1 8820:1 9770:1 9801:1 9823:1 10443:1 10794:1 13438:1 13633:1 14230:1 16025:1 17479:1 17664:1 18064:1 18778:1 19626:1 
0.3670191595923258 0.5436108584336429 1048:1 1734:1 3197:1 3692:1 5094:1 5977:1 6802:1 8019:1 8601:1 10927:1 11112:1 11458:1 12977:1 16477:1 17127:1 17629:1 17771:1 17870:1 18129:1 18495:1 19448:1 
0 0.1064358428906583 1453:1 1790:1 3887:1 5341:1 6452:1 6642:1 6802:1 7423:1 7438:1 10041:1 10278:1 10508:1 11175:1 12977:1 13107:1 14268:1 15830:1 16918:1 17074:1 17624:1 17731:1 18605:1 20108:1 
0.1042119201919632 0.277303514241799 491:1 822:1 979:1 1048:1 1091:1 2450:1 3692:1 5094:1 6177:1 6959:1 7892:1 7915:1 9035:1 9823:1 10508:1 11032:1 11458:1 11711:1 12130:1 12523:1 12659:1 13213:1 13764:1 14926:1 17074:1 19062:1 
0 0.1893977618543062 822:1 824:1 979:1 4695:1 5977:1 7892:1 11711:1 11950:1 12340:1 13586:1 13637:1 14548:1 14995:1 15771:1 16711:1 19397:1 
0.02688596059218337 0.2396053094540918 822:1 1009:1 2881:1 4603:1 4674:1 5272:1 5977:1 6802:1 8601:1 11029:1 11128:1 12118:1 14706:1 17813:1 20029:1 20055:1 
0.06202593914836166 0.06913512263660253 464:1 822:1 834:1 1048:1 1056:1 2006:1 4980:1 5698:1 6356:1 6437:1 6452:1 6667:1 6911:1 6943:1 9322:1 11029:1 11032:1 11620:1 12157:1 12977:1 13083:1 13458:1 15854:1 16574:1 16656:1 17505:1 17841:1 18307:1 18958:1 
0 0.3147921652699323 241:1 671:1 1265:1 2561:1 3086:1 7017:1 7818:1 11707:1 11725:1 12340:1 12952:1 13764:1 14706:1 15152:1 17296:1 18156:1 
0 0.7545213163364906 1265:1 1695:1 2450:1 2561:1 3602:1 4695:1 5094:1 5977:1 9823:1 11711:1 12130:1 12977:1 13764:1 14548:1 15327:1 15469:1 
0.1601423019548394 0.4500667666622512 822:1 1364:1 2413:1 5127:1 6056:1 6537:1 6701:1 9952:1 11029:1 11601:1 13015:1 13331:1 16029:1 17724:1 17813:1 19822:1 20207:1 20286:1 
0 0.03937529641696737 728:1 745:1 822:1 883:1 2200:1 3659:1 3895:1 4096:1 5094:1 5977:1 6862:1 8379:1 9533:1 9558:1 11029:1 12049:1 12977:1 13904:1 14881:1 16692:1 16707:1 16983:1 17629:1 18494:1 20209:1 
0.0528550882682717 1 822:1 1753:1 2227:1 2561:1 3583:1 3659:1 5094:1 5977:1 8491:1 10393:1 10575:1 11999:1 13255:1 16067:1 16405:1 17624:1 18065:1 
0 0.1333274129033582 657:1 822:1 1595:1 2561:1 2796:1 3693:1 5094:1 5878:1 5883:1 5977:1 6822:1 8131:1 10263:1 10508:1 11041:1 11595:1 12343:1 12939:1 12977:1 13083:1 16081:1 17074:1 17629:1 19915:1 20079:1 
0.04868500245189513 0.1297840948423187 822:1 1048:1 1576:1 5977:1 6056:1 6527:1 7892:1 9375:1 9823:1 10263:1 11041:1 11711:1 11870:1 11881:1 11922:1 12340:1 13994:1 14548:1 16849:1 18613:1 
0.1217490655550365 0 68:1 260:1 1434:1 2418:1 4213:1 4303:1 6269:1 6586:1 6624:1 6625:1 7527:1 7818:1 7892:1 9823:1 13454:1 13739:1 14807:1 14995:1 15442:1 16026:1 16394:1 16473:1 16528:1 17074:1 17629:1 17733:1 17913:1 
0.06996501281007499 1 1048:1 1265:1 1795:1 2561:1 3659:1 6822:1 8396:1 8464:1 8590:1 9035:1 10049:1 10879:1 11425:1 12340:1 13728:1 16602:1 16933:1 17624:1 17841:1 18965:1 
0.2330298279391357 0.7948520625033443 167:1 328:1 2561:1 5967:1 5977:1 6802:1 8454:1 12100:1 17624:1 19984:1 20105:1 
0.02314029062325911 1 1133:1 1839:1 2453:1 2561:1 3602:1 3659:1 4116:1 5977:1 6147:1 6177:1 7020:1 7892:1 8590:1 9383:1 10630:1 12837:1 13563:1 16163:1 17012:1 17624:1 17841:1 
0 0.4220314100396004 2099:1 2456:1 3271:1 3659:1 4334:1 7152:1 7527:1 10281:1 10499:1 11029:1 11775:1 12340:1 12977:1 15953:1 16461:1 16468:1 17624:1 17789:1 17913:1 19481:1 19951:1 
0 0.739102926672046 1744:1 2561:1 3659:1 5093:1 5977:1 6056:1 6802:1 10066:1 10927:1 12340:1 12977:1 14496:1 15084:1 15454:1 17037:1 17039:1 
0.07752748798146529 0.08925669806221946 526:1 2561:1 3659:1 3934:1 5945:1 5977:1 6294:1 7423:1 7527:1 9284:1 9426:1 10136:1 10508:1 11152:1 11692:1 12130:1 12340:1 12977:1 13051:1 13358:1 15096:1 15281:1 17074:1 18409:1 
0.6534713886992856 0.09356030390167326 822:1 1734:1 3583:1 7662:1 9284:1 10049:1 10136:1 10902:1 11029:1 11711:1 11730:1 13381:1 13553:1 15152:1 
0.1081450264175375 0.1407293648013478 2227:1 3255:1 3808:1 5094:1 6802:1 7527:1 7926:1 10254:1 10508:1 11115:1 14289:1 19258:1 
0 0.5917974357865187 822:1 834:1 2456:1 6478:1 8863:1 8938:1 9533:1 11032:1 11152:1 11860:1 11999:1 12340:1 12593:1 12825:1 12977:1 14732:1 15500:1 15854:1 17629:1 19481:1 19584:1 
0.1560281406390127 0.1735988089183442 789:1 822:1 1028:1 1048:1 2348:1 2420:1 3310:1 5094:1 5400:1 6829:1 8734:1 10255:1 10508:1 10563:1 11458:1 12977:1 14548:1 14952:1 15075:1 17624:1 19258:1 
0.1176719967524894 0 144:1 1265:1 1620:1 2576:1 5300:1 5977:1 6509:1 7314:1 7662:1 7818:1 7926:1 10278:1 11032:1 11041:1 12391:1 14807:1 14995:1 15287:1 15500:1 15745:1 16070:1 16692:1 17667:1 18307:1 19915:1 
0 0.166525158512367 2020:1 2342:1 2351:1 2731:1 5977:1 6713:1 6721:1 7103:1 7961:1 10508:1 11993:1 11994:1 12292:1 12977:1 13846:1 15497:1 16511:1 16812:1 17629:1 18428:1 19481:1 
0 0.009103600405816472 989:1 1151:1 2881:1 4471:1 5094:1 5977:1 8632:1 10827:1 12797:1 12977:1 14807:1 15173:1 16843:1 17011:1 17624:1 19028:1 19532:1 19635:1 
0 0.6346283029773641 112:1 822:1 1048:1 1265:1 2038:1 2561:1 5094:1 5179:1 5676:1 5714:1 6625:1 7527:1 9450:1 11032:1 11053:1 14548:1 14706:1 15854:1 18193:1 18347:1 18542:1 19476:1 
0.164381745901731 0.1453059479436335 260:1 822:1 1434:1 1513:1 1700:1 2908:1 5883:1 5977:1 6666:1 6802:1 7107:1 7892:1 8135:1 8443:1 9823:1 10405:1 10554:1 11047:1 11670:1 15318:1 16326:1 17629:1 18302:1 19482:1 
0.2720791027504023 0.2345499490568631 260:1 1839:1 3771:1 4228:1 4246:1 6635:1 6802:1 6822:1 8734:1 9823:1 9952:1 10266:1 11114:1 11458:1 12448:1 12718:1 12790:1 15500:1 
0 0.1557480379802174 1314:1 1695:1 3119:1 3583:1 5094:1 5977:1 6583:1 7892:1 8349:1 9362:1 11066:1 11860:1 12977:1 13126:1 13414:1 16812:1 17166:1 17629:1 17865:1 18307:1 19915:1 20036:1 
0 0.4725633225135168 1734:1 1945:1 2020:1 2561:1 3659:1 3989:1 4419:1 5977:1 6713:1 6970:1 7826:1 7968:1 9035:1 9725:1 9924:1 10508:1 11029:1 11041:1 11613:1 13846:1 15014:1 16692:1 17074:1 17196:1 17941:1 
0.1776838025938051 0.1321558137806394 822:1 914:1 955:1 1068:1 1107:1 1468:1 2413:1 2759:1 3508:1 4249:1 5591:1 5715:1 7196:1 10127:1 10468:1 12623:1 16468:1 16752:1 17094:1 18818:1 19725:1 19997:1 20153:1 
0.03457500788827032 0 7:1 1003:1 2201:1 2413:1 2799:1 3170:1 3602:1 3692:1 5094:1 5977:1 6670:1 7892:1 8150:1 8959:1 10069:1 11029:1 11924:1 12340:1 12977:1 15959:1 16375:1 17074:1 
0 0.186420715303777 351:1 822:1 1478:1 2631:1 3627:1 5333:1 5977:1 6519:1 7818:1 9994:1 10508:1 11041:1 11727:1 12022:1 17074:1 17522:1 
0 0.4046415621814087 1048:1 1753:1 2456:1 2566:1 3659:1 6324:1 6331:1 6586:1 6732:1 7527:1 9533:1 9794:1 10593:1 11692:1 13074:1 13815:1 14348:1 14881:1 14995:1 15172:1 15500:1 15771:1 15956:1 16394:1 16792:1 16804:1 17878:1 18307:1 
0 0.1463072386237971 1151:1 3659:1 5094:1 5977:1 6808:1 11029:1 11725:1 12332:1 12977:1 14366:1 20113:1 
0.00155005311153226 0 822:1 983:1 4630:1 5094:1 5399:1 6051:1 7267:1 9823:1 10505:1 10510:1 11029:1 13213:1 13838:1 13901:1 13963:1 18129:1 18975:1 20111:1 
0 0.1060376086237605 128:1 799:1 822:1 1475:1 2656:1 3680:1 5094:1 5530:1 5977:1 6519:1 6822:1 7892:1 9328:1 9952:1 11029:1 13083:1 14706:1 14919:1 17074:1 17163:1 18326:1 
0.1320016177384199 1 2561:1 4246:1 5094:1 6822:1 9823:1 11053:1 15172:1 16705:1 17431:1 17522:1 17624:1 
0.2044176321195826 0.2765078168031902 799:1 1734:1 3271:1 4100:1 5322:1 5977:1 6235:1 6263:1 6625:1 6822:1 7818:1 8680:1 9823:1 10328:1 11029:1 11041:1 12659:1 14548:1 15152:1 15564:1 16983:1 19725:1 19915:1 
0.05416986256433622 1 895:1 1734:1 2561:1 2964:1 3299:1 5094:1 6793:1 7527:1 8887:1 9823:1 9952:1 10263:1 11481:1 11914:1 12052:1 12423:1 12977:1 15953:1 17624:1 17629:1 18245:1 18494:1 18919:1 
0.02883607219095703 0.01888046245858117 138:1 657:1 822:1 3409:1 5094:1 7624:1 7818:1 9556:1 12939:1 12977:1 13399:1 14366:1 15575:1 15953:1 17093:1 17573:1 17624:1 20079:1 
0 0.3209575944340574 1695:1 1915:1 2561:1 2964:1 5094:1 5648:1 5817:1 7527:1 8590:1 9528:1 9823:1 11029:1 12340:1 14142:1 16067:1 17415:1 17624:1 17628:1 19921:1 
0.1183206378407802 0.06267412796710617 25:1 138:1 822:1 1048:1 1576:1 1871:1 2561:1 2964:1 5104:1 5343:1 6519:1 6670:1 6802:1 6822:1 7527:1 9598:1 9823:1 10508:1 10825:1 11032:1 11711:1 11782:1 15813:1 15855:1 16718:1 18232:1 
0.07924062229261773 0.03731400876438369 728:1 822:1 1753:1 5327:1 5977:1 7091:1 7314:1 7892:1 8379:1 9823:1 10113:1 10879:1 11029:1 11037:1 11041:1 11620:1 12013:1 13213:1 14165:1 15008:1 15500:1 16394:1 16494:1 19660:1 19755:1 
0 0.1827499869268759 5977:1 6091:1 9713:1 9796:1 10263:1 11041:1 11247:1 11504:1 11692:1 11773:1 12340:1 16472:1 17430:1 17624:1 19532:1 
0 0.3397471422128976 1048:1 1801:1 2456:1 2561:1 2656:1 3659:1 5094:1 5530:1 6713:1 7527:1 8782:1 12340:1 12977:1 13064:1 13229:1 14548:1 15084:1 17670:1 19038:1 19584:1 
0.3506953345881594 1 3255:1 4185:1 6802:1 8734:1 8887:1 9823:1 9994:1 11114:1 11922:1 18158:1 18668:1 18936:1 
0 0.3174792127902799 2328:1 2561:1 4443:1 5977:1 6625:1 10508:1 11041:1 11339:1 11973:1 12340:1 12977:1 13331:1 15500:1 16524:1 17074:1 17240:1 17616:1 17841:1 18654:1 18708:1 19816:1 
0 0.5973855228375973 600:1 822:1 2561:1 2737:1 4265:1 4743:1 5026:1 5977:1 6533:1 8590:1 10508:1 11041:1 11613:1 12340:1 12834:1 13632:1 14993:1 15854:1 16067:1 17074:1 17855:1 19258:1 
0.6824749952773227 1 144:1 822:1 1554:1 2413:1 3659:1 5094:1 6802:1 7245:1 7298:1 7892:1 9415:1 9823:1 11458:1 11560:1 11922:1 12343:1 13038:1 14548:1 15500:1 18307:1 
0 0.4091063590910097 822:1 1048:1 2561:1 3534:1 3583:1 3899:1 5977:1 6000:1 6822:1 7892:1 9975:1 10049:1 10263:1 10455:1 11711:1 12340:1 17074:1 17629:1 18144:1 19024:1 19238:1 20122:1 
0.1474322120278829 0.1604383891075354 822:1 896:1 1576:1 2561:1 3099:1 3887:1 5094:1 5259:1 5335:1 5977:1 6013:1 6056:1 6340:1 6760:1 6802:1 6927:1 7760:1 9823:1 11041:1 11560:1 13507:1 14060:1 15500:1 16336:1 16857:1 17624:1 18129:1 19031:1 19481:1 
0.009604719769432012 0.2673158846694749 128:1 191:1 658:1 822:1 2453:1 2456:1 4499:1 4764:1 5259:1 5698:1 6355:1 7892:1 8271:1 8734:1 10674:1 11029:1 12495:1 14366:1 14995:1 15800:1 16729:1 17624:1 19481:1 
0 0.03329685714648673 822:1 1865:1 1915:1 2456:1 2561:1 3583:1 3693:1 4430:1 5094:1 5161:1 5415:1 6267:1 6492:1 6802:1 8237:1 8316:1 8955:1 10658:1 12011:1 17074:1 17813:1 18449:1 18542:1 
0 0.6306855744496467 735:1 822:1 1048:1 1800:1 2413:1 3659:1 4408:1 5094:1 7580:1 7751:1 7892:1 10128:1 10508:1 11041:1 11128:1 11398:1 14286:1 14366:1 15500:1 16067:1 16303:1 17629:1 19258:1 19532:1 19879:1 
0.3062508141163729 0.7273726874167006 1833:1 2561:1 3197:1 3532:1 4674:1 5094:1 5415:1 6761:1 6823:1 8271:1 8334:1 9823:1 10508:1 11053:1 11692:1 16231:1 17117:1 17624:1 17629:1 
0.05443594274589562 0 914:1 1011:1 2036:1 3887:1 4198:1 5094:1 6288:1 6667:1 7279:1 9797:1 9823:1 11193:1 11711:1 12977:1 13277:1 14275:1 15179:1 15196:1 17296:1 17624:1 18739:1 19031:1 
0.006689434813537902 0.4158661158672123 822:1 935:1 1766:1 1915:1 2456:1 2561:1 2579:1 3583:1 3989:1 4452:1 5009:1 5541:1 5977:1 9670:1 11029:1 11140:1 11207:1 12558:1 13575:1 14384:1 15873:1 17074:1 17441:1 17624:1 
0.03168443045474514 0.3357670888529271 1048:1 1325:1 1498:1 3916:1 4844:1 5526:1 5977:1 6541:1 6713:1 7892:1 8379:1 9533:1 10097:1 10633:1 11041:1 13789:1 14881:1 15861:1 16542:1 16812:1 18307:1 19481:1 
0.0518339708125027 0 728:1 822:1 914:1 1468:1 2413:1 3481:1 3583:1 3625:1 3887:1 3989:1 4198:1 6506:1 8609:1 9210:1 9457:1 10127:1 10558:1 10993:1 11458:1 11711:1 13023:1 15830:1 17629:1 17910:1 18111:1 18129:1 19314:1 20298:1 
0.1055103784646539 0 2834:1 6705:1 8174:1 10508:1 11029:1 11358:1 12785:1 13083:1 14807:1 16029:1 16700:1 17074:1 17624:1 17841:1 
0 0.2503642889525132 825:1 1576:1 2413:1 3268:1 5094:1 6056:1 6970:1 8277:1 9752:1 10825:1 10846:1 11047:1 12340:1 12977:1 13083:1 14078:1 15305:1 15442:1 17841:1 18164:1 
0.1474837746566248 0 144:1 822:1 1048:1 1576:1 2456:1 2734:1 4266:1 5335:1 6340:1 6667:1 6802:1 7526:1 7892:1 9823:1 10771:1 10846:1 11114:1 11398:1 12157:1 12762:1 13083:1 17074:1 17441:1 17629:1 19218:1 
0.1281099192654301 0.1657849082989115 822:1 979:1 1555:1 1805:1 2413:1 2456:1 2612:1 3600:1 5361:1 7715:1 7892:1 8112:1 8590:1 9590:1 11029:1 12277:1 12340:1 16251:1 17624:1 17629:1 17841:1 
0.07716187600693843 0.2929607323076232 822:1 834:1 1184:1 1915:1 2413:1 2561:1 6056:1 6802:1 6817:1 7892:1 8607:1 8734:1 9823:1 10357:1 11939:1 13038:1 13083:1 15500:1 16587:1 17074:1 17910:1 17997:1 19074:1 19918:1 
0.9340051251419309 0.6560388269794771 1048:1 5977:1 7686:1 7698:1 8590:1 10263:1 11266:1 11705:1 12340:1 13677:1 13750:1 15817:1 15854:1 16574:1 17505:1 18245:1 19236:1 19240:1 
0.1693086947202791 0.1555293932963262 1554:1 1915:1 2561:1 3271:1 3583:1 5640:1 7348:1 7678:1 8734:1 10263:1 11029:1 11254:1 11482:1 11997:1 13015:1 13128:1 14881:1 14995:1 15500:1 19255:1 19397:1 19481:1 
0.07847305305481408 1 3888:1 5094:1 5977:1 6342:1 6590:1 7892:1 8398:1 9823:1 10508:1 12340:1 13226:1 15854:1 16067:1 17629:1 
0 0.09843926071970437 822:1 1243:1 1883:1 2516:1 3657:1 4165:1 6527:1 7892:1 7965:1 8955:1 10243:1 10508:1 10777:1 11041:1 11429:1 11730:1 15021:1 15500:1 15682:1 16356:1 17074:1 18245:1 19059:1 20226:1 
0.09654636898407651 0.2137235979670664 138:1 1438:1 2457:1 2552:1 2964:1 4213:1 4430:1 5809:1 5977:1 6703:1 6760:1 6822:1 7423:1 7892:1 8983:1 9952:1 10342:1 11041:1 11458:1 14807:1 14926:1 17624:1 18245:1 19532:1 19548:1 
0 0.007591907394673899 1217:1 3255:1 4185:1 5977:1 6802:1 8887:1 10266:1 11029:1 12002:1 16201:1 18668:1 
0 0.06023298555549658 50:1 392:1 2561:1 3808:1 5094:1 5605:1 6056:1 6267:1 7527:1 8983:1 9533:1 10278:1 10508:1 11032:1 11114:1 11646:1 11711:1 14203:1 14881:1 17813:1 
0 1 2561:1 3583:1 5094:1 5322:1 5346:1 5698:1 5977:1 6056:1 7435:1 7661:1 8734:1 9456:1 11032:1 12100:1 15667:1 17644:1 18245:1 
0.2595945001524494 0.5327387556823396 1734:1 5094:1 5977:1 6509:1 7670:1 9856:1 10508:1 12977:1 16692:1 17624:1 17629:1 19217:1 
0.1864651230111095 0.09912455189856072 1028:1 1739:1 2878:1 3241:1 5322:1 5410:1 5977:1 5981:1 7269:1 7964:1 11041:1 11559:1 13226:1 17074:1 17813:1 19359:1 
0.1196702289066254 0.3128909109571773 728:1 1424:1 1647:1 1753:1 3583:1 5094:1 5415:1 5977:1 8334:1 9725:1 10508:1 11041:1 11086:1 15759:1 16045:1 16231:1 16520:1 16707:1 16812:1 17064:1 17323:1 17629:1 17907:1 
0.06318374340469686 0 1810:1 2453:1 2561:1 3128:1 5415:1 5977:1 6172:1 7376:1 8081:1 9328:1 9416:1 9594:1 9823:1 11047:1 11481:1 11692:1 13083:1 17624:1 17813:1 18375:1 
0 0.03449372077594622 144:1 1048:1 1576:1 5009:1 5259:1 6519:1 6822:1 7954:1 8135:1 9823:1 11032:1 11140:1 13719:1 15873:1 15953:1 18158:1 20036:1 
0.138640312145845 0.2607883179151477 822:1 1048:1 2561:1 3583:1 5977:1 8491:1 8573:1 9423:1 9447:1 9649:1 9823:1 10262:1 10927:1 11186:1 12130:1 12543:1 13943:1 14089:1 17016:1 18347:1 18770:1 19013:1 19915:1 
0.06043281363226796 0.2825705303762663 157:1 735:1 799:1 822:1 1622:1 5977:1 6071:1 6177:1 6713:1 6822:1 7248:1 9823:1 9889:1 10263:1 10508:1 11032:1 13267:1 14366:1 16473:1 17624:1 17629:1 17816:1 
0.00237709169208188 0 1326:1 2048:1 2561:1 4375:1 4796:1 5770:1 5977:1 6519:1 7020:1 7527:1 7892:1 8271:1 8590:1 9082:1 9745:1 9823:1 11041:1 11725:1 12130:1 12977:1 14115:1 17744:1 17870:1 
0.05672842808009623 0.1468179043089571 1048:1 3659:1 3899:1 5977:1 6000:1 6267:1 6400:1 6831:1 7592:1 7706:1 8590:1 10171:1 10508:1 11029:1 11041:1 11604:1 11924:1 12340:1 13072:1 14421:1 19953:1 
0.09389551256638079 0 249:1 1048:1 1388:1 1466:1 1555:1 3449:1 7198:1 7892:1 10508:1 11029:1 11692:1 12656:1 13083:1 14366:1 17074:1 
0.01639582951010828 0.03357150741133514 438:1 822:1 1434:1 1800:1 3602:1 5977:1 6286:1 10508:1 11032:1 11044:1 11047:1 11895:1 12011:1 13136:1 14286:1 14548:1 17074:1 17913:1 19156:1 19419:1 20291:1 
0.09828863631523621 0.1386546825061079 101:1 353:1 2874:1 3450:1 4060:1 4334:1 5236:1 5977:1 7000:1 12340:1 14196:1 15854:1 16468:1 16574:1 17074:1 17182:1 17505:1 18018:1 18307:1 19749:1 
0 0.08974671346128575 822:1 2413:1 6533:1 6721:1 7892:1 8983:1 9533:1 9699:1 9823:1 10263:1 11029:1 11032:1 12280:1 13015:1 13446:1 14548:1 14729:1 15096:1 15477:1 17624:1 19481:1 
0.2576071280520407 0 144:1 395:1 822:1 1151:1 1378:1 1708:1 1848:1 1978:1 5977:1 6793:1 6822:1 8734:1 9823:1 9952:1 10508:1 11029:1 11032:1 11041:1 11114:1 11254:1 11670:1 14366:1 14995:1 15152:1 16394:1 17624:1 17629:1 18193:1 18307:1 20286:1 
0.3282207922296571 0.4619112862477437 121:1 1024:1 2413:1 3401:1 4419:1 5094:1 5977:1 6670:1 6802:1 6822:1 6870:1 7307:1 9823:1 11041:1 12130:1 13815:1 14250:1 16569:1 17074:1 18909:1 20166:1 
0 0.1559989432124044 376:1 822:1 1978:1 2453:1 2561:1 2755:1 3534:1 5094:1 6269:1 6670:1 6822:1 7818:1 7892:1 9629:1 12718:1 12977:1 14659:1 14706:1 15075:1 15667:1 17037:1 17624:1 18307:1 19823:1 20167:1 
0.1210049165972466 0.3339249157881304 359:1 2413:1 4394:1 5280:1 5782:1 5878:1 6669:1 7892:1 8207:1 8223:1 8590:1 9533:1 10508:1 11596:1 12340:1 14881:1 15854:1 16792:1 17321:1 18031:1 19293:1 
0.09768458938450836 0.1248365872632647 1143:1 2561:1 2695:1 3631:1 4832:1 5792:1 5977:1 7527:1 8454:1 9952:1 12100:1 12340:1 13815:1 13994:1 14090:1 14512:1 15021:1 18141:1 18958:1 
0.03150908541512603 0 822:1 883:1 999:1 1048:1 1337:1 2561:1 2964:1 3583:1 3989:1 4708:1 5094:1 5698:1 5977:1 6492:1 7527:1 7892:1 9429:1 9823:1 10049:1 10243:1 10499:1 11711:1 11922:1 13728:1 18016:1 
0 0.3344177922710003 179:1 822:1 2456:1 2881:1 3225:1 3692:1 3804:1 5094:1 6172:1 6478:1 6802:1 7527:1 11047:1 12052:1 12130:1 12423:1 12472:1 12977:1 13815:1 14368:1 14548:1 15615:1 17515:1 17624:1 17670:1 
0.09210499468315654 0.3004666261544809 116:1 1557:1 2453:1 3659:1 3692:1 3693:1 5977:1 6821:1 7892:1 8590:1 8641:1 10163:1 10254:1 10508:1 10600:1 13815:1 14180:1 14278:1 14817:1 16263:1 17074:1 17624:1 17629:1 17786:1 17993:1 18245:1 18693:1 
0 0.7575982503577027 1961:1 3890:1 5977:1 10508:1 10575:1 11029:1 13015:1 17624:1 18065:1 19481:1 
0.08863552475206116 0.1449657317260219 822:1 1800:1 2241:1 3965:1 5094:1 5400:1 5977:1 7077:1 7527:1 8227:1 11029:1 11041:1 11862:1 12977:1 14659:1 15104:1 15152:1 16000:1 18059:1 19660:1 
0.01107258380121249 0.4210239666102886 112:1 376:1 890:1 1048:1 2048:1 5094:1 5977:1 10263:1 10508:1 10620:1 11041:1 11558:1 11692:1 15575:1 17624:1 17733:1 
0 0.4292614533768728 822:1 2453:1 3934:1 5977:1 7892:1 10263:1 10334:1 11041:1 12001:1 12340:1 12879:1 13665:1 14777:1 15854:1 16067:1 17513:1 18012:1 18307:1 18531:1 19231:1 
0 0.2498919843905128 822:1 1170:1 2453:1 3899:1 4453:1 5118:1 5322:1 5977:1 6000:1 6373:1 6400:1 7029:1 10262:1 10455:1 11327:1 11924:1 14776:1 17629:1 
0.322840298071587 0.5087900652310507 241:1 822:1 1048:1 2453:1 3659:1 5094:1 9823:1 9826:1 11008:1 11254:1 11725:1 16331:1 17624:1 17690:1 18307:1 18512:1 
0.2301634877768155 0.4048998782097042 822:1 1576:1 1865:1 3699:1 4409:1 6519:1 6802:1 6822:1 7647:1 8590:1 8669:1 9035:1 9590:1 11032:1 11041:1 12618:1 14706:1 16494:1 17670:1 
0.4933384340922273 0.6548654881005177 5094:1 5977:1 6808:1 8734:1 9952:1 10067:1 11029:1 11862:1 13083:1 14366:1 16336:1 17074:1 17644:1 
0 0.2555351316235568 728:1 1048:1 4080:1 5399:1 5977:1 6056:1 6368:1 7751:1 8174:1 10508:1 11029:1 11563:1 12785:1 16700:1 17352:1 17841:1 
0 0.8832494114565534 1048:1 2379:1 2456:1 2737:1 5094:1 7423:1 7527:1 7818:1 8019:1 9952:1 10508:1 11481:1 11692:1 12099:1 12157:1 12928:1 12977:1 13173:1 14548:1 16465:1 17624:1 19612:1 19915:1 
0.225712987126145 0.3685973468698547 822:1 1434:1 5698:1 5977:1 6802:1 7298:1 7662:1 8590:1 8734:1 9098:1 10846:1 11032:1 11483:1 11646:1 12340:1 13917:1 14203:1 
0.1187872846384658 0.03878181144594706 1915:1 2561:1 6177:1 8135:1 9308:1 9823:1 10508:1 11029:1 11358:1 11692:1 12033:1 12908:1 13586:1 14663:1 15172:1 15479:1 16309:1 17331:1 17524:1 17624:1 18919:1 19481:1 
0.2702991013213332 0.3261424673376821 144:1 822:1 1788:1 1915:1 2561:1 3866:1 4729:1 5094:1 5698:1 5977:1 6802:1 7527:1 7892:1 8053:1 8268:1 9952:1 10257:1 11032:1 11041:1 11114:1 12907:1 12977:1 14548:1 16412:1 16489:1 17629:1 17644:1 19397:1 19481:1 
0.05495539348887949 0.1417545474223795 822:1 1147:1 2453:1 2685:1 2779:1 2937:1 3583:1 4301:1 7599:1 7892:1 9293:1 9590:1 9823:1 10263:1 11029:1 11114:1 11711:1 11939:1 14138:1 15396:1 15771:1 17455:1 
0 0.7056552712589683 2453:1 3899:1 4453:1 5118:1 5322:1 5977:1 6373:1 6400:1 7029:1 8775:1 9584:1 10262:1 10455:1 11327:1 11924:1 12340:1 14776:1 17629:1 
0.2110000885713726 0.4564599631248889 822:1 2128:1 2561:1 3866:1 4695:1 5094:1 5797:1 6172:1 6360:1 6519:1 6970:1 7490:1 7527:1 7892:1 9823:1 9952:1 10357:1 10434:1 10499:1 10890:1 11745:1 11862:1 12977:1 14995:1 17624:1 18919:1 20193:1 
0.08189883591515712 0 1048:1 1584:1 3358:1 4197:1 4354:1 5265:1 5977:1 7042:1 8295:1 8601:1 11247:1 11692:1 12977:1 13121:1 13340:1 13728:1 14639:1 14995:1 17430:1 18031:1 19182:1 
0.1438372503402575 0.4574084374623864 3761:1 4958:1 5977:1 7821:1 7822:1 7892:1 8441:1 8590:1 12340:1 15667:1 15953:1 16045:1 17044:1 17152:1 17430:1 17624:1 17878:1 
0.09451146835357568 0.2540484742812803 1048:1 3657:1 3928:1 5094:1 6056:1 6070:1 8464:1 8590:1 9362:1 10510:1 11041:1 11047:1 11458:1 11711:1 14751:1 14995:1 15581:1 15667:1 17910:1 18245:1 19481:1 20055:1 
0.1246586991079593 0.1938590132129968 126:1 293:1 799:1 3160:1 3887:1 5094:1 5977:1 6902:1 7196:1 7991:1 8276:1 9110:1 9533:1 10110:1 11047:1 12272:1 14060:1 14597:1 14628:1 14881:1 15123:1 16894:1 17089:1 18106:1 18246:1 19188:1 19258:1 19784:1 
0.03284399800908217 0.3179299666364021 720:1 822:1 1795:1 3659:1 4674:1 6519:1 6802:1 7152:1 7527:1 7892:1 8396:1 9823:1 10720:1 12270:1 13083:1 13597:1 13815:1 14765:1 15727:1 17629:1 17910:1 18307:1 18542:1 18965:1 20150:1 20207:1 
0 0.249322338766142 2413:1 2456:1 3659:1 5792:1 5990:1 7665:1 7782:1 8135:1 9533:1 12340:1 12977:1 13226:1 13382:1 13926:1 13994:1 14470:1 14881:1 16900:1 17498:1 17868:1 
0.009945371299642826 0.2824206977310705 822:1 4701:1 5094:1 5977:1 6519:1 6556:1 6590:1 7267:1 7818:1 8715:1 9823:1 10925:1 11088:1 14706:1 15305:1 15689:1 16692:1 17152:1 17430:1 18512:1 
0.1855503788304881 0.01502844869154257 144:1 3503:1 3913:1 5094:1 5399:1 5977:1 6071:1 6713:1 6822:1 7892:1 8536:1 9823:1 10508:1 11029:1 11458:1 11922:1 14366:1 16578:1 16812:1 16857:1 17074:1 17624:1 17629:1 18692:1 19584:1 
0.02628738823857302 0 1816:1 3934:1 5094:1 9056:1 9590:1 10695:1 11114:1 11247:1 14608:1 15096:1 16414:1 16421:1 17624:1 19397:1 
0.2014004502843205 0.2946436269913301 118:1 822:1 1048:1 1816:1 2731:1 3917:1 4890:1 5977:1 6177:1 6970:1 8008:1 8596:1 8938:1 9823:1 10430:1 10846:1 11032:1 11860:1 13061:1 15452:1 15727:1 17522:1 17624:1 20008:1 
0.03502156131057899 0.3898378519607179 822:1 834:1 979:1 2609:1 2874:1 3583:1 5094:1 6772:1 6778:1 6970:1 7527:1 8590:1 8734:1 10049:1 10508:1 11711:1 11993:1 12340:1 15152:1 15172:1 15895:1 17074:1 18494:1 18680:1 
0.5974520000171413 0.6496715293539449 124:1 728:1 2561:1 4788:1 5977:1 6865:1 10499:1 10508:1 11254:1 14366:1 17074:1 18061:1 
0.03276230526489136 0.2482004139725618 822:1 1048:1 2020:1 2561:1 2990:1 3583:1 3659:1 4377:1 5977:1 7096:1 7301:1 7892:1 8164:1 8590:1 9035:1 9952:1 11711:1 11924:1 12340:1 13846:1 14197:1 16209:1 19915:1 
0 0.1465271670231471 144:1 822:1 1048:1 1576:1 1734:1 2413:1 2519:1 3583:1 3958:1 5094:1 6625:1 7050:1 7527:1 7724:1 9808:1 10508:1 11458:1 11711:1 11894:1 12423:1 12907:1 15152:1 15500:1 17443:1 17624:1 17858:1 19182:1 20273:1 
0.1098467729797508 0.09489147855459884 362:1 822:1 1048:1 1319:1 3659:1 5094:1 5977:1 6177:1 7892:1 7945:1 8186:1 8601:1 9659:1 11041:1 12041:1 13038:1 13125:1 17093:1 18307:1 18494:1 18512:1 19457:1 20105:1 
0.05030898343880741 0 491:1 822:1 824:1 2745:1 3583:1 4430:1 4452:1 5094:1 6802:1 7016:1 7527:1 7888:1 8637:1 10049:1 11029:1 11258:1 11725:1 13558:1 13815:1 15500:1 16452:1 17670:1 17813:1 
0 0.3419691148607005 822:1 2456:1 2768:1 3521:1 3583:1 3602:1 5977:1 6802:1 6933:1 7423:1 7661:1 7786:1 8348:1 8516:1 11041:1 11047:1 12977:1 13555:1 13815:1 15653:1 15854:1 16986:1 17074:1 17279:1 17670:1 
0 0.05600336861398642 1151:1 2699:1 3659:1 4788:1 4987:1 5094:1 6808:1 7955:1 8590:1 9533:1 10687:1 10688:1 10770:1 11939:1 11997:1 12340:1 14366:1 14807:1 14881:1 16081:1 17074:1 18733:1 
0 0.02072649209696257 620:1 1505:1 2413:1 2456:1 2561:1 3255:1 3693:1 3867:1 5996:1 6056:1 8615:1 9794:1 11725:1 12977:1 13121:1 16336:1 18245:1 19481:1 
0.02345209728278638 0.3361649295940263 822:1 4292:1 5094:1 5640:1 5977:1 6701:1 7348:1 9823:1 10488:1 10508:1 11041:1 11711:1 12343:1 12656:1 13578:1 17074:1 17813:1 17982:1 
0 0.1166068268311619 144:1 3271:1 4185:1 5094:1 5878:1 6802:1 6822:1 8019:1 9823:1 9994:1 10720:1 11032:1 11041:1 11088:1 12059:1 12977:1 15152:1 15318:1 15771:1 17074:1 18668:1 20207:1 
0 0.3829246317075853 2413:1 2561:1 2677:1 3602:1 3659:1 4476:1 5459:1 5977:1 8590:1 9056:1 9534:1 10508:1 10620:1 11257:1 11698:1 12977:1 13015:1 13846:1 16067:1 16421:1 16792:1 17037:1 17629:1 18146:1 18542:1 
0.5046217256413146 1 241:1 1622:1 4301:1 6625:1 6802:1 7892:1 9823:1 9902:1 11112:1 11959:1 14548:1 17629:1 
0.1466113373451617 0.192933308891698 56:1 822:1 5094:1 8637:1 8684:1 9823:1 9902:1 10508:1 11032:1 11047:1 13083:1 14376:1 16029:1 16718:1 17624:1 19800:1 
0.052444921872498 0.1980794547500726 799:1 822:1 1048:1 2456:1 2561:1 3255:1 5977:1 6168:1 6519:1 6666:1 7818:1 8056:1 8596:1 8637:1 9823:1 11041:1 13038:1 13083:1 13213:1 13512:1 15075:1 17813:1 
0.0454024934888675 0.4512286148406985 3863:1 5977:1 6713:1 8122:1 9119:1 9796:1 10263:1 10463:1 11029:1 11247:1 11692:1 14366:1 15136:1 17074:1 17430:1 17629:1 18269:1 
0.1250083695067601 0.2838122384322218 822:1 1471:1 1576:1 3392:1 4788:1 5878:1 5977:1 6215:1 6970:1 7661:1 10825:1 11032:1 11314:1 13071:1 14138:1 15727:1 17624:1 19255:1 19556:1 
0.08738777272523614 0 990:1 2930:1 3712:1 5765:1 7892:1 8271:1 8590:1 9680:1 9823:1 10049:1 11032:1 11041:1 12100:1 12845:1 14643:1 15170:1 15814:1 16248:1 16261:1 17624:1 17629:1 18154:1 
0.06822907624988882 0 682:1 822:1 1170:1 2453:1 2561:1 3659:1 3899:1 4453:1 5094:1 5118:1 5322:1 5714:1 5977:1 6000:1 6373:1 6400:1 7029:1 10455:1 11327:1 14776:1 16692:1 17629:1 
0.04838512694646261 0 822:1 985:1 1416:1 3604:1 5157:1 5415:1 8358:1 9924:1 11114:1 11247:1 11692:1 16602:1 17310:1 17624:1 17660:1 17910:1 
0.04849719922898933 0.6521719853879939 1555:1 1915:1 2561:1 2881:1 3271:1 3401:1 3659:1 5977:1 6802:1 7208:1 7892:1 9730:1 10508:1 11756:1 19725:1 
0.1178172588217967 0 822:1 1576:1 1915:1 2048:1 3659:1 4953:1 5327:1 5977:1 6492:1 6670:1 7422:1 8135:1 8590:1 9823:1 10658:1 10846:1 11027:1 11029:1 11120:1 13331:1 15648:1 17624:1 17629:1 18394:1 19048:1 20273:1 
0 0.4575839096780797 2413:1 2561:1 2676:1 3401:1 5094:1 5977:1 6802:1 10399:1 15026:1 15953:1 
0.05226622050951914 0.22300905275808 822:1 1048:1 2456:1 2969:1 3583:1 4130:1 4246:1 5851:1 6177:1 6970:1 7892:1 7952:1 8429:1 9823:1 11014:1 11032:1 11047:1 11053:1 13035:1 15667:1 16395:1 16976:1 17074:1 20160:1 
0.005753763536048143 0.07514447646527629 1048:1 2561:1 2734:1 3583:1 3790:1 5977:1 6331:1 7292:1 9794:1 10266:1 11711:1 11914:1 16201:1 
0.08799758003310183 0.1904335311560834 2561:1 5094:1 5648:1 6478:1 7326:1 7435:1 7527:1 7939:1 8019:1 8592:1 9823:1 10630:1 11041:1 18687:1 
0.186673420795792 0.6711124878786002 261:1 3271:1 5094:1 6802:1 7119:1 8590:1 8637:1 14366:1 16729:1 17074:1 17629:1 19565:1 
0.03652404083629265 0 112:1 1818:1 2321:1 2413:1 2456:1 4197:1 5259:1 5977:1 6235:1 6822:1 7760:1 7892:1 8590:1 8818:1 8983:1 9823:1 11458:1 11943:1 12656:1 12991:1 13083:1 14548:1 17074:1 17624:1 17644:1 18158:1 18430:1 19327:1 19915:1 
0.5696692636841799 1 144:1 1810:1 2561:1 5094:1 6251:1 6368:1 6802:1 7136:1 7527:1 7892:1 8590:1 10508:1 11041:1 14548:1 15152:1 17910:1 
0.07949991877111683 0.6368831694968056 112:1 261:1 501:1 822:1 2561:1 4499:1 4638:1 5094:1 5977:1 6970:1 8081:1 8454:1 8669:1 10508:1 11029:1 11041:1 11914:1 13879:1 20079:1 
0.318450969364991 0.3591647722162003 64:1 2881:1 3583:1 4810:1 5399:1 6570:1 6667:1 8379:1 8464:1 8734:1 9823:1 11032:1 11039:1 11192:1 11922:1 12423:1 14366:1 17074:1 17386:1 17522:1 17624:1 17644:1 17758:1 18158:1 18391:1 19258:1 
0.3026658371382481 0.4501148334153124 1576:1 3583:1 5083:1 6802:1 8590:1 9133:1 11032:1 11114:1 11481:1 12741:1 14902:1 15152:1 17074:1 18547:1 19279:1 
0.1089134306927607 0.2478907683099827 249:1 822:1 1342:1 1388:1 1633:1 2760:1 4213:1 4669:1 5046:1 5094:1 6313:1 8887:1 9952:1 11114:1 11711:1 12977:1 14366:1 17624:1 18512:1 18984:1 
0 0.1979786013124932 822:1 1048:1 1800:1 2456:1 2561:1 3128:1 5400:1 5977:1 6519:1 6670:1 6987:1 9926:1 11047:1 11558:1 11692:1 14286:1 14659:1 14706:1 17624:1 17771:1 19448:1 
0 0.2043341613945256 119:1 822:1 979:1 2413:1 3438:1 5094:1 6056:1 6177:1 9423:1 9540:1 11305:1 12052:1 12144:1 12423:1 12933:1 12977:1 13728:1 13815:1 15500:1 15727:1 17813:1 19419:1 19481:1 
0.06582966403807136 0.1274108442458234 799:1 822:1 1762:1 2561:1 2631:1 5967:1 5977:1 6313:1 6744:1 10508:1 11041:1 13815:1 15342:1 15521:1 18883:1 19062:1 19481:1 20265:1 
0.05786948392974079 0.06875961546784146 260:1 822:1 1170:1 5094:1 5676:1 6771:1 7423:1 7527:1 7892:1 10931:1 11088:1 11604:1 12100:1 12223:1 14518:1 15661:1 16692:1 16867:1 17074:1 17624:1 17629:1 
0 0.1396462677076711 144:1 822:1 1048:1 2456:1 2552:1 5399:1 5883:1 5977:1 6478:1 6802:1 7588:1 8590:1 9809:1 9903:1 12157:1 13083:1 14519:1 15918:1 17429:1 17624:1 18825:1 
0 0.04590882717549159 4219:1 4656:1 5977:1 6056:1 8174:1 8734:1 11029:1 11900:1 12785:1 15500:1 17629:1 17841:1 18967:1 18996:1 
0.1250385828870361 0.583682714097047 1048:1 5977:1 6056:1 8174:1 12785:1 15328:1 15500:1 17629:1 17841:1 18996:1 19182:1 
0.01927686335186201 0.06005231515754113 1499:1 4316:1 5977:1 6802:1 7160:1 7286:1 7892:1 8268:1 8983:1 8992:1 9501:1 9713:1 10257:1 12977:1 13699:1 14834:1 15114:1 15998:1 16468:1 17629:1 18146:1 19258:1 
0.05755824148045231 0.2447974893158569 1048:1 1805:1 2456:1 2561:1 3583:1 5996:1 6669:1 6836:1 7527:1 7702:1 7892:1 8590:1 8732:1 9823:1 9952:1 10040:1 10508:1 11041:1 11114:1 11364:1 11980:1 12957:1 12977:1 15442:1 16812:1 17093:1 17913:1 18062:1 19765:1 20106:1 
0 0.3200833465065516 1132:1 1833:1 2813:1 4200:1 4638:1 5977:1 7818:1 7913:1 8590:1 9613:1 10166:1 10508:1 11692:1 12340:1 12977:1 13505:1 15953:1 17074:1 17296:1 17624:1 
0.02133740937014358 0.02561808131566169 822:1 2413:1 2456:1 2745:1 3299:1 3832:1 4540:1 4717:1 5977:1 6445:1 6822:1 8353:1 10175:1 11114:1 11853:1 12448:1 15009:1 15500:1 15913:1 16202:1 17074:1 17629:1 18245:1 19481:1 
0.2844683173998682 0.1579805326130854 260:1 822:1 879:1 2932:1 3284:1 3951:1 5977:1 6259:1 6802:1 6822:1 7624:1 8019:1 8601:1 9823:1 9826:1 10049:1 10508:1 10927:1 11029:1 15362:1 15538:1 16711:1 17074:1 19276:1 19587:1 
0 0.3504099856110476 772:1 2241:1 2543:1 3128:1 3659:1 3951:1 4452:1 5094:1 5522:1 5977:1 7527:1 7818:1 8516:1 10508:1 11041:1 11725:1 11995:1 13825:1 14685:1 14706:1 15762:1 18245:1 19345:1 
0 0.01257811114057126 822:1 973:1 1745:1 2074:1 2456:1 3659:1 5878:1 5977:1 6862:1 8379:1 8637:1 9620:1 9670:1 10264:1 11730:1 12340:1 15454:1 15667:1 16059:1 17624:1 18031:1 19258:1 19397:1 19476:1 
0 0.1040399775943853 1471:1 2420:1 5977:1 7161:1 8601:1 12280:1 12340:1 13064:1 13550:1 14729:1 15837:1 15854:1 18021:1 19807:1 
0.1049413417458422 0.5646992148671822 84:1 2413:1 2561:1 3299:1 3583:1 5094:1 5977:1 6070:1 7527:1 8887:1 10226:1 11711:1 12977:1 13815:1 16692:1 
0.1643714915249556 0.3058925481711838 260:1 607:1 822:1 1028:1 1576:1 1915:1 2561:1 3549:1 3583:1 5698:1 5977:1 6519:1 6802:1 7892:1 9823:1 10488:1 11029:1 11041:1 13764:1 14366:1 17074:1 17296:1 17624:1 17629:1 17910:1 18000:1 19364:1 
0.1847556862069602 0.3415948478308782 822:1 1048:1 1190:1 1265:1 1576:1 2561:1 2802:1 3693:1 5094:1 5698:1 5977:1 6056:1 6802:1 9494:1 10927:1 12343:1 14025:1 17629:1 19071:1 
0.09018587796351075 0.06761212928382261 591:1 1265:1 1818:1 2456:1 2457:1 4476:1 5094:1 5384:1 5648:1 5977:1 6177:1 9823:1 10508:1 10902:1 11041:1 11973:1 13256:1 13310:1 15500:1 17074:1 17155:1 17624:1 19481:1 19725:1 
0.1923777750881434 0.1933945267009896 822:1 4213:1 5300:1 6150:1 6509:1 7892:1 9823:1 11029:1 11041:1 11114:1 12977:1 13805:1 15287:1 15399:1 15667:1 17910:1 
0.007370418814606872 0.3701743818568544 260:1 393:1 1800:1 1802:1 2413:1 2450:1 4081:1 4704:1 5094:1 6107:1 9952:1 11041:1 12340:1 12957:1 12977:1 13051:1 13382:1 14286:1 16860:1 19481:1 
0 0.1060746097498077 2561:1 3255:1 3583:1 4538:1 5094:1 5714:1 5893:1 5977:1 6358:1 7818:1 9290:1 11458:1 11833:1 12340:1 12977:1 15096:1 15667:1 17074:1 17296:1 18347:1 19481:1 19915:1 
0.003081413464309395 0.07847532326100051 596:1 728:1 1818:1 5977:1 6259:1 8085:1 8379:1 8771:1 9375:1 9533:1 10388:1 10708:1 10927:1 11041:1 11730:1 14264:1 14881:1 15874:1 16455:1 17624:1 18031:1 19645:1 
0 0.01799967812014401 822:1 2609:1 4757:1 5439:1 10296:1 11029:1 11032:1 13083:1 14464:1 15771:1 17074:1 18209:1 18307:1 19725:1 
0.07459451200623295 0.3381376946612035 247:1 822:1 1048:1 2450:1 2609:1 2628:1 3583:1 5094:1 5977:1 6177:1 6670:1 7267:1 8555:1 12772:1 12844:1 12977:1 13148:1 15442:1 15727:1 17310:1 17629:1 19263:1 
0.3173578634718557 0.4408552408591369 2029:1 2609:1 3583:1 3610:1 5698:1 5977:1 6251:1 6822:1 7527:1 9952:1 11041:1 11356:1 11711:1 11922:1 13148:1 15075:1 17282:1 17310:1 17813:1 17910:1 
0.02453289986170093 0.2405030770205148 64:1 144:1 241:1 822:1 1158:1 3928:1 3934:1 5094:1 5130:1 8715:1 11458:1 12707:1 13887:1 15063:1 15782:1 17625:1 17629:1 20055:1 
0.3367047466521624 0.2286676750656063 822:1 1025:1 1576:1 1818:1 1885:1 2377:1 2456:1 4004:1 5977:1 6177:1 6509:1 7307:1 7818:1 10384:1 10990:1 11041:1 11756:1 13036:1 14945:1 15287:1 16405:1 17074:1 19004:1 19182:1 
0.002287346538758591 0.1682452962277091 1143:1 2561:1 2695:1 5792:1 5977:1 7527:1 8590:1 9952:1 10263:1 12100:1 12340:1 13815:1 13994:1 14090:1 14512:1 15021:1 15824:1 17441:1 18141:1 18958:1 19514:1 
0 0.1726871658582045 822:1 1072:1 2003:1 2074:1 2170:1 2456:1 2561:1 3255:1 3299:1 4213:1 5977:1 6331:1 7892:1 9794:1 10508:1 10554:1 12059:1 12977:1 13098:1 14807:1 15477:1 15521:1 17629:1 17841:1 19101:1 
0.02038214981049991 0 4515:1 5161:1 6802:1 6822:1 6883:1 9699:1 11029:1 11114:1 11458:1 12448:1 12977:1 13015:1 13846:1 15500:1 17174:1 17628:1 
0 0.03514446382536078 346:1 1245:1 2994:1 3252:1 3583:1 3659:1 5977:1 6519:1 7527:1 7818:1 7892:1 8590:1 8775:1 9200:1 11711:1 11950:1 12340:1 13879:1 15152:1 15854:1 16938:1 19258:1 
0.05489765821073561 0.514164894604722 112:1 822:1 1576:1 2561:1 3315:1 5648:1 6670:1 7299:1 7527:1 7787:1 8068:1 8135:1 8330:1 9834:1 10128:1 10508:1 11041:1 11114:1 11692:1 11753:1 12977:1 14807:1 15500:1 17624:1 18542:1 20150:1 
0 0.063259754730766 138:1 799:1 822:1 1265:1 2561:1 3592:1 4674:1 5546:1 6710:1 7892:1 11032:1 12339:1 12833:1 12977:1 13079:1 15953:1 17624:1 19028:1 
0.10319405306754 0 822:1 1622:1 1810:1 2350:1 2561:1 4213:1 5094:1 7435:1 7527:1 8590:1 8707:1 8734:1 9823:1 9952:1 11032:1 12472:1 12483:1 14995:1 16992:1 17610:1 17644:1 18078:1 19654:1 19894:1 
0.01591835107891081 0.2235801248401749 858:1 914:1 3602:1 5591:1 6667:1 6808:1 9582:1 11350:1 11386:1 11711:1 13250:1 14366:1 15179:1 16865:1 18488:1 19726:1 
0.07326977813530083 0 84:1 822:1 1265:1 2101:1 2413:1 2561:1 3299:1 3583:1 3602:1 3934:1 4601:1 5837:1 6056:1 6802:1 7892:1 8590:1 8601:1 9509:1 11041:1 11114:1 12099:1 14348:1 15500:1 16363:1 16430:1 17074:1 17910:1 
0.8490555486625273 0.3566087711675611 1021:1 1048:1 2745:1 3313:1 5977:1 7686:1 7698:1 8590:1 10263:1 11705:1 12340:1 13677:1 13750:1 16574:1 17505:1 18245:1 19236:1 19240:1 
0 0.001620018047657238 822:1 1343:1 1915:1 2561:1 3583:1 5977:1 7661:1 8067:1 8081:1 10640:1 11862:1 12977:1 14558:1 16357:1 17670:1 
0.06195184255829974 0.1652820950810228 709:1 822:1 1027:1 1048:1 2456:1 4674:1 5094:1 5767:1 5977:1 6802:1 8590:1 8601:1 9035:1 10145:1 10508:1 10993:1 11922:1 11924:1 13728:1 15228:1 16714:1 19915:1 
0.02824013097435601 0.0852740488011829 144:1 1265:1 2456:1 2561:1 3897:1 4329:1 5977:1 6802:1 7527:1 7661:1 7754:1 9533:1 9823:1 10120:1 10365:1 11029:1 12977:1 13728:1 14366:1 14454:1 14881:1 15327:1 17910:1 18156:1 18936:1 
0.4473585163554987 0.4235030565361605 3386:1 4812:1 5810:1 8018:1 11029:1 11620:1 14275:1 14366:1 14703:1 14807:1 16468:1 16718:1 
0.1926624961069247 0.3215342844125936 191:1 293:1 822:1 1696:1 1734:1 2413:1 2447:1 3027:1 3583:1 5094:1 6831:1 9653:1 9823:1 11047:1 11793:1 12731:1 13497:1 15442:1 16692:1 17117:1 17629:1 18490:1 18494:1 20256:1 
0.1916963025279251 0.2038161743972708 1818:1 2379:1 3263:1 5094:1 5837:1 7527:1 7818:1 7892:1 8271:1 10488:1 11725:1 12130:1 13815:1 14468:1 14525:1 17624:1 20166:1 
0.3807318963970229 0.2714433760352447 822:1 1048:1 1265:1 2561:1 3692:1 5977:1 6970:1 7527:1 7818:1 9158:1 9328:1 9447:1 10508:1 11032:1 11862:1 12394:1 14078:1 14685:1 15746:1 17037:1 
0 0.1517543660809098 2456:1 2561:1 4430:1 6590:1 6802:1 7435:1 9902:1 10049:1 10508:1 11458:1 11639:1 11722:1 12002:1 12977:1 15689:1 16718:1 
0 0.09854020903881969 822:1 2456:1 3657:1 3692:1 5094:1 5977:1 6056:1 10510:1 17152:1 17430:1 18245:1 
0.007121056303973212 0.72289349868195 3899:1 5009:1 5977:1 6000:1 6373:1 6400:1 7054:1 7324:1 7438:1 8590:1 10455:1 10542:1 12303:1 12340:1 15906:1 17624:1 17629:1 17813:1 
0.01286441071274553 0.1552371672257139 293:1 799:1 822:1 864:1 1865:1 1986:1 2230:1 2413:1 3869:1 5977:1 6177:1 6604:1 7050:1 9114:1 10140:1 11041:1 12530:1 12833:1 13015:1 15024:1 15762:1 19028:1 19481:1 
0 0.04565578086997148 2561:1 3912:1 5184:1 5977:1 6102:1 6231:1 8758:1 9902:1 10069:1 11029:1 12695:1 12977:1 13721:1 13945:1 14981:1 15854:1 16412:1 16692:1 17031:1 17410:1 17451:1 17629:1 18494:1 19476:1 
0.01331150404847524 0 822:1 1265:1 1795:1 2453:1 3583:1 5094:1 5977:1 6808:1 7818:1 8398:1 9823:1 10508:1 11041:1 11114:1 11922:1 13015:1 13083:1 14366:1 14807:1 14995:1 16812:1 16857:1 17624:1 17758:1 19397:1 19915:1 
0.04546817502871772 0.4529422428083357 1915:1 2561:1 5977:1 8374:1 8601:1 12977:1 14496:1 17624:1 17699:1 18245:1 
0 1 1734:1 3077:1 3659:1 5094:1 5977:1 6294:1 7088:1 7423:1 10931:1 11273:1 12340:1 13472:1 14706:1 15096:1 16470:1 17074:1 17629:1 17913:1 20055:1 
0 0.5618646944831069 64:1 2413:1 2420:1 2456:1 2590:1 3057:1 4080:1 6492:1 7818:1 8637:1 9133:1 9290:1 10409:1 10508:1 11458:1 12340:1 14548:1 15504:1 17074:1 17296:1 19481:1 
0 0.4226689248547976 1048:1 3622:1 5009:1 5105:1 5977:1 6263:1 7020:1 8353:1 8775:1 11325:1 12855:1 15305:1 15500:1 17624:1 19323:1 
0.02229833497170798 0.1088865204027537 701:1 822:1 1265:1 1839:1 2561:1 2881:1 3110:1 4788:1 5977:1 6822:1 7892:1 8136:1 11029:1 11032:1 15771:1 17441:1 17629:1 18193:1 18307:1 19038:1 
0.02880448291231771 0.1336231512229399 822:1 1955:1 2699:1 2960:1 3409:1 5009:1 5094:1 5977:1 6235:1 7818:1 11358:1 12340:1 13815:1 13928:1 19915:1 19933:1 
0 0.1158112372392893 1048:1 1265:1 3392:1 3401:1 5977:1 7050:1 9823:1 11032:1 12977:1 15514:1 15737:1 16692:1 18307:1 19725:1 20001:1 
0.07204641978125353 0.03316210883911549 822:1 1818:1 4354:1 5094:1 5618:1 5977:1 6056:1 9066:1 9826:1 10508:1 11041:1 12100:1 12977:1 13211:1 16404:1 17074:1 17524:1 17624:1 17813:1 19640:1 
0 0.1416566018628237 1265:1 1434:1 1883:1 2552:1 3307:1 3659:1 3692:1 4474:1 5094:1 5308:1 5977:1 6478:1 6738:1 9572:1 9823:1 10508:1 11041:1 11769:1 12340:1 13064:1 13255:1 13844:1 16692:1 17031:1 17624:1 18307:1 
0.3617680739788072 0.5566268145704548 822:1 2166:1 2173:1 2561:1 2821:1 3401:1 5977:1 6056:1 7892:1 12311:1 14995:1 17074:1 17624:1 18245:1 18430:1 19725:1 
0.05010317140952434 0.2358915126357346 179:1 822:1 5977:1 6667:1 6802:1 8967:1 9279:1 9582:1 9952:1 10508:1 11029:1 11032:1 11041:1 12100:1 12340:1 12977:1 13941:1 15136:1 15854:1 16336:1 16468:1 16896:1 17074:1 17624:1 18096:1 19258:1 
0.08663658396045493 0.4122285139104513 1052:1 1157:1 2456:1 2561:1 4409:1 5977:1 9326:1 9389:1 10082:1 11041:1 11338:1 11904:1 12250:1 12977:1 15240:1 16122:1 17624:1 18245:1 19801:1 
0.428725532079638 0.4168237164432809 144:1 750:1 1915:1 2561:1 5259:1 5977:1 6802:1 8150:1 9447:1 9823:1 11032:1 11073:1 11680:1 15274:1 17518:1 20207:1 
0.1807294239314784 0.2887879376864709 112:1 1505:1 10488:1 11029:1 11114:1 12340:1 13578:1 13697:1 14807:1 16394:1 17335:1 18245:1 18542:1 18623:1 
0.09980186601106052 0 822:1 2048:1 2371:1 2519:1 5094:1 5399:1 5977:1 7050:1 7818:1 8021:1 9808:1 10266:1 10463:1 10508:1 10912:1 11029:1 11558:1 12659:1 12877:1 12977:1 13226:1 16046:1 16081:1 17074:1 17629:1 20207:1 
0.08892013651750084 0 136:1 822:1 972:1 1048:1 1753:1 1828:1 2552:1 3934:1 5977:1 6723:1 10508:1 11247:1 11692:1 12011:1 14683:1 16046:1 17624:1 
0.2068636352038427 0.4980370835121068 1551:1 1753:1 2453:1 3888:1 3928:1 7527:1 7818:1 8590:1 11128:1 11725:1 12340:1 14366:1 15653:1 15908:1 16067:1 16717:1 17152:1 17629:1 18245:1 18542:1 18650:1 
0.03950616639689929 0.3474425718222839 583:1 605:1 1048:1 1753:1 3299:1 4054:1 5977:1 6802:1 7908:1 9383:1 9823:1 11725:1 11994:1 12712:1 12977:1 13815:1 15318:1 15953:1 17074:1 17629:1 17794:1 20001:1 
0 0.3815467895469677 822:1 1695:1 1753:1 4080:1 4282:1 4354:1 4660:1 5259:1 5851:1 6056:1 6802:1 6822:1 7050:1 14366:1 16792:1 17813:1 18385:1 20030:1 20218:1 
0.4981115631550111 1 1048:1 1265:1 4656:1 5977:1 11041:1 11613:1 11653:1 17855:1 18307:1 19725:1 
0.09866498494586946 0.2727934392331479 144:1 593:1 728:1 865:1 979:1 2241:1 2413:1 2878:1 3255:1 3659:1 3692:1 4213:1 5399:1 5851:1 5977:1 6670:1 7441:1 7892:1 8340:1 8590:1 9823:1 9952:1 10508:1 11041:1 11447:1 11560:1 13641:1 14881:1 14926:1 16394:1 17522:1 17624:1 
0.03191883441020578 0.1376605823681993 822:1 1298:1 2813:1 2881:1 3583:1 4638:1 4676:1 5977:1 6391:1 7435:1 7892:1 9823:1 11114:1 11458:1 11711:1 11738:1 11922:1 11950:1 13505:1 14191:1 14659:1 15152:1 15771:1 17074:1 17629:1 
0 0.0831460780334294 241:1 970:1 1048:1 1622:1 5094:1 10263:1 10621:1 11114:1 11458:1 11497:1 11738:1 12977:1 13091:1 13459:1 13927:1 14706:1 16417:1 16692:1 16732:1 
0 0.04676457303823185 657:1 822:1 2048:1 3371:1 5327:1 5469:1 5642:1 5977:1 6637:1 7702:1 7892:1 9317:1 9823:1 10263:1 10508:1 11029:1 11595:1 11725:1 11914:1 12939:1 13815:1 14548:1 17624:1 17670:1 17744:1 
0.02197534817818523 0.3439944333979391 64:1 249:1 2456:1 2561:1 4707:1 5094:1 5460:1 5776:1 5977:1 6056:1 7892:1 8010:1 10508:1 11041:1 11498:1 12707:1 12977:1 13463:1 13815:1 14366:1 15653:1 15689:1 16524:1 17064:1 18349:1 20239:1 
0 0.0287941038139436 1151:1 1810:1 9952:1 11029:1 11032:1 11254:1 14366:1 15737:1 17910:1 19255:1 19505:1 20113:1 
0.2996372066473891 0.2499213058866983 1151:1 3045:1 4788:1 7081:1 8590:1 9823:1 9952:1 11029:1 11032:1 11254:1 14366:1 15869:1 18307:1 20176:1 
0.2151007990296156 0.290610745724037 822:1 2530:1 2561:1 4432:1 5415:1 5977:1 6802:1 6862:1 6970:1 7818:1 8085:1 8379:1 9035:1 9823:1 11047:1 11145:1 14292:1 14548:1 14659:1 17037:1 19915:1 
0.06804288005586782 0.5670199070866098 1048:1 1231:1 1610:1 2561:1 2731:1 3197:1 3659:1 5094:1 6083:1 6669:1 8464:1 10263:1 11114:1 11293:1 12738:1 15759:1 16652:1 17624:1 17642:1 18307:1 19000:1 19126:1 19514:1 
0.1449475449778601 0 2561:1 3583:1 3692:1 5094:1 5335:1 6340:1 6625:1 8135:1 8590:1 10049:1 11711:1 12977:1 13083:1 13512:1 16857:1 
0 0.5610800039647631 144:1 822:1 1048:1 1753:1 1865:1 2456:1 5977:1 6056:1 6492:1 6669:1 6802:1 7438:1 7718:1 8590:1 9533:1 9713:1 10658:1 11032:1 11041:1 12340:1 13719:1 14881:1 17074:1 17644:1 19915:1 20135:1 
0 0.625904231094168 822:1 1576:1 5094:1 6519:1 6802:1 7430:1 7527:1 9108:1 10508:1 10797:1 11041:1 11488:1 14706:1 18492:1 
0 0.1415766922378779 241:1 822:1 1132:1 2456:1 2561:1 2663:1 3255:1 3583:1 3803:1 5977:1 6425:1 6802:1 7527:1 10262:1 13509:1 13815:1 15226:1 17074:1 17296:1 17624:1 18347:1 18368:1 18664:1 18834:1 19481:1 
0 0.0892116828633273 822:1 979:1 2456:1 2561:1 2831:1 4428:1 5407:1 5426:1 5954:1 5977:1 6802:1 12130:1 12305:1 12340:1 12977:1 13257:1 14894:1 17074:1 17624:1 18318:1 18330:1 19481:1 
0 0.1466923079308735 822:1 1734:1 2737:1 3692:1 5259:1 6154:1 7804:1 10499:1 11038:1 11398:1 11537:1 12232:1 12977:1 14366:1 15667:1 17629:1 19708:1 
0.1694069929124671 0.2262717319925305 822:1 914:1 1048:1 1744:1 2910:1 3887:1 4255:1 4825:1 5094:1 6241:1 6551:1 6667:1 7315:1 7968:1 9328:1 9582:1 10508:1 11032:1 11350:1 11711:1 11973:1 14595:1 15179:1 
0.06121931935437141 0.01437118221589731 105:1 108:1 171:1 1894:1 2007:1 2989:1 3534:1 5094:1 5259:1 6452:1 6534:1 6951:1 7423:1 7527:1 8321:1 8734:1 11711:1 11939:1 12977:1 14366:1 14706:1 15345:1 15922:1 17074:1 
0.4444633248391174 0 1265:1 1505:1 4788:1 5977:1 6865:1 7604:1 13331:1 14366:1 17629:1 17813:1 18061:1 18307:1 
0.05816572717795255 0.08883084053099827 728:1 1048:1 1314:1 1499:1 2304:1 5977:1 6901:1 8590:1 9800:1 11011:1 11372:1 11613:1 12340:1 17388:1 18245:1 19404:1 
0.01110024402598994 0 822:1 2561:1 3887:1 5094:1 6016:1 7527:1 8887:1 11037:1 11046:1 11047:1 11558:1 11691:1 11692:1 13586:1 14266:1 14366:1 14595:1 14995:1 
0.03499055758599182 0.1398324160920363 1221:1 2561:1 2569:1 7527:1 7721:1 7793:1 7818:1 10128:1 10617:1 11041:1 11711:1 12036:1 12977:1 14366:1 15238:1 15500:1 17624:1 17638:1 17813:1 18989:1 
0 0.7271277738778034 2299:1 2456:1 5094:1 5221:1 5977:1 6802:1 8081:1 8601:1 12340:1 12977:1 13211:1 13815:1 16391:1 17064:1 
0.1180302356991941 0.1143921965731844 1379:1 2026:1 2375:1 2759:1 3068:1 3160:1 3887:1 4401:1 4410:1 5094:1 5591:1 10508:1 11554:1 13760:1 14165:1 14268:1 15179:1 16228:1 18213:1 18246:1 18430:1 18488:1 19572:1 
0.1648988729069238 0 281:1 728:1 822:1 1048:1 1434:1 2350:1 2520:1 2561:1 3088:1 4452:1 5094:1 5427:1 6822:1 9823:1 10049:1 10430:1 10554:1 11029:1 11458:1 12130:1 12280:1 13846:1 14548:1 14729:1 15152:1 17331:1 18129:1 
0.1904620649359468 0.1027593987410502 502:1 547:1 799:1 822:1 1440:1 4255:1 5094:1 6142:1 6667:1 8638:1 9322:1 9801:1 10508:1 11030:1 11350:1 11791:1 13617:1 14851:1 16040:1 16468:1 17624:1 18488:1 18494:1 19726:1 
0.2897772616966459 0.3438430666585398 144:1 965:1 1576:1 2456:1 3017:1 5400:1 5415:1 5977:1 6802:1 8348:1 9528:1 9923:1 10283:1 11029:1 11114:1 12081:1 12303:1 12977:1 15173:1 15500:1 15790:1 16336:1 16981:1 18443:1 18542:1 19028:1 
0.05168168269020772 0 822:1 870:1 1434:1 1960:1 2238:1 2413:1 2967:1 5087:1 5300:1 5310:1 5977:1 6822:1 9590:1 9823:1 10508:1 11560:1 11572:1 12081:1 12977:1 13255:1 15818:1 16213:1 17396:1 17629:1 19532:1 
0.06823645639712272 0.002762033047430348 799:1 847:1 1024:1 2230:1 2334:1 2561:1 5027:1 5094:1 5977:1 6423:1 8590:1 8601:1 10508:1 11029:1 12104:1 14685:1 15096:1 16551:1 17240:1 17902:1 19004:1 19258:1 19807:1 
0.1781149291368158 0 822:1 1173:1 1697:1 2377:1 4453:1 5094:1 5977:1 6373:1 6452:1 6822:1 7624:1 7949:1 10366:1 10508:1 11029:1 13719:1 14358:1 14706:1 15075:1 15128:1 16022:1 17629:1 17954:1 18542:1 
0.08794568055512399 0.1424617813771983 822:1 1166:1 1810:1 2241:1 2561:1 2737:1 3583:1 5094:1 6353:1 6795:1 7111:1 7423:1 7527:1 8149:1 8538:1 9823:1 10510:1 11041:1 11047:1 11711:1 11802:1 14009:1 14693:1 14926:1 16720:1 17074:1 18307:1 
0.02698829636087566 0.1565513744271844 241:1 1315:1 2456:1 4656:1 5094:1 5415:1 7892:1 9408:1 10329:1 11862:1 12977:1 14995:1 16285:1 19942:1 
0 0.8778987922583401 3255:1 4354:1 5094:1 7527:1 11041:1 11725:1 11727:1 12977:1 15667:1 16122:1 17624:1 20012:1 
0.02983317283187534 0.235978165540078 822:1 914:1 973:1 2074:1 3887:1 4188:1 6259:1 6452:1 6667:1 8965:1 10049:1 10492:1 10508:1 10620:1 10963:1 11041:1 11711:1 14165:1 14548:1 14585:1 14690:1 15128:1 15179:1 15514:1 15559:1 16711:1 19746:1 19860:1 
0 0.2766506880241755 1865:1 2561:1 3255:1 5977:1 6802:1 8443:1 11029:1 13313:1 13719:1 16336:1 17624:1 18121:1 
0 0.1083087913033124 1265:1 1734:1 3392:1 3583:1 4091:1 5509:1 5977:1 10393:1 11711:1 16201:1 17629:1 17813:1 
0.02906268594037003 0 822:1 2453:1 3602:1 3680:1 3934:1 4782:1 5321:1 5765:1 6177:1 7299:1 8529:1 9680:1 9843:1 10081:1 11273:1 13083:1 13197:1 15075:1 15691:1 18307:1 20079:1 20131:1 
0.008960578928588545 0.1552418712101226 701:1 2029:1 2456:1 3966:1 5676:1 5977:1 6802:1 7790:1 9191:1 10713:1 11029:1 11247:1 11692:1 12797:1 12803:1 12977:1 12991:1 17361:1 17629:1 18322:1 
0.1786562591066664 0.333021365912722 822:1 1048:1 2456:1 2516:1 2919:1 5094:1 5977:1 6452:1 6802:1 7527:1 8936:1 10185:1 10508:1 11047:1 12977:1 13036:1 13399:1 13815:1 14693:1 15152:1 16669:1 16942:1 17296:1 18733:1 18958:1 
0.2187573535582421 0.08472822006636319 128:1 1048:1 2149:1 3583:1 5415:1 5698:1 5970:1 5977:1 6534:1 6802:1 6822:1 7661:1 8590:1 9629:1 10049:1 10243:1 10263:1 12977:1 13079:1 16524:1 17750:1 18654:1 19258:1 19318:1 19816:1 20137:1 
0 0.09914520195397937 184:1 241:1 366:1 792:1 822:1 1048:1 1132:1 2561:1 3602:1 3693:1 5407:1 5977:1 6867:1 7892:1 9305:1 12340:1 12423:1 13126:1 13531:1 14706:1 15239:1 15727:1 19287:1 
0 0.462898332287023 1839:1 2413:1 2456:1 3057:1 3693:1 3989:1 5239:1 5977:1 6056:1 6064:1 7892:1 11032:1 11385:1 11656:1 12011:1 12340:1 14706:1 14995:1 15667:1 17624:1 18435:1 18495:1 
0.05786092738736321 0.1355112119704406 1048:1 3659:1 3947:1 5094:1 5977:1 6412:1 6667:1 8056:1 8135:1 9533:1 10387:1 11039:1 11702:1 11791:1 12977:1 14165:1 14366:1 15123:1 15460:1 15591:1 18213:1 19650:1 
0 0.4726138677597377 144:1 822:1 1151:1 1915:1 2561:1 2662:1 4146:1 4499:1 6808:1 7663:1 11598:1 11997:1 14366:1 15143:1 15854:1 17074:1 17389:1 18307:1 19255:1 
0.02781869802502323 0.3273566965261712 1915:1 2561:1 3509:1 3627:1 5399:1 5977:1 6802:1 7433:1 7892:1 9184:1 10499:1 10844:1 11032:1 11041:1 13989:1 15188:1 15727:1 
0.1283076043859505 0.1434675342256422 241:1 822:1 1245:1 1434:1 2090:1 2441:1 4574:1 7892:1 9200:1 9823:1 9952:1 14995:1 16336:1 17074:1 18847:1 20286:1 
0.1162350735247899 0.0419110402316537 822:1 1048:1 1753:1 1762:1 2570:1 3299:1 4601:1 5094:1 5106:1 5967:1 5977:1 7818:1 7892:1 8590:1 8601:1 9328:1 10508:1 10602:1 11692:1 14548:1 14685:1 14706:1 15605:1 15737:1 16828:1 17074:1 
0.02492996434544238 0 593:1 2048:1 3887:1 5327:1 5591:1 5851:1 6802:1 8734:1 9210:1 16815:1 19148:1 
0.2355673651845953 0.4785712719248604 144:1 822:1 1048:1 1818:1 3692:1 4025:1 5094:1 5977:1 6152:1 6537:1 6822:1 9066:1 9823:1 11029:1 11247:1 17524:1 17624:1 
0.003185548969410435 0.04665141994199526 620:1 1048:1 3739:1 4957:1 5094:1 5950:1 7749:1 8596:1 9681:1 10508:1 11114:1 12977:1 15500:1 15854:1 17522:1 17624:1 18951:1 19508:1 
0.02982805787696036 0 822:1 1048:1 2048:1 2561:1 4650:1 4724:1 5938:1 5977:1 6802:1 9902:1 10067:1 11558:1 
0 0.03597855579599803 822:1 3602:1 4633:1 5977:1 5990:1 7069:1 8268:1 9911:1 10257:1 11041:1 11920:1 14142:1 14253:1 14298:1 15514:1 15854:1 15945:1 15970:1 17042:1 17074:1 19038:1 
0.02057434809894037 0.4876147699328611 260:1 822:1 1647:1 2561:1 5148:1 5977:1 6569:1 7818:1 7892:1 10455:1 11029:1 11041:1 11053:1 11655:1 12669:1 13952:1 14995:1 15075:1 15833:1 16812:1 17415:1 18059:1 19454:1 
0.03835794052228078 0.1863406521810539 290:1 2561:1 3197:1 3532:1 3659:1 5977:1 6995:1 7054:1 7528:1 8531:1 8590:1 8601:1 10263:1 11137:1 11692:1 12340:1 17074:1 18623:1 19514:1 
0 0.2500513334293156 1048:1 1695:1 2561:1 5009:1 5094:1 6716:1 6822:1 6890:1 7423:1 7527:1 7971:1 9704:1 10508:1 10726:1 11047:1 13949:1 14138:1 17296:1 17624:1 18307:1 20055:1 
0.2364401356560069 0.4659502423576244 378:1 1166:1 1564:1 1962:1 5400:1 5591:1 7527:1 7661:1 7869:1 7949:1 7965:1 11711:1 11786:1 11922:1 12602:1 13938:1 15152:1 15436:1 16047:1 17813:1 19549:1 
0.2412237986427087 0.1161052228529619 1048:1 1762:1 2413:1 2450:1 2561:1 3128:1 3659:1 4213:1 5018:1 5878:1 5967:1 7785:1 8590:1 9379:1 10508:1 11503:1 11692:1 12340:1 13083:1 13764:1 15689:1 18639:1 19460:1 
0.03360449649196838 0.1354867568701419 184:1 799:1 883:1 3317:1 6036:1 6533:1 7330:1 8853:1 10049:1 10059:1 10720:1 13083:1 14706:1 15075:1 15152:1 17074:1 17624:1 18512:1 19397:1 19992:1 20030:1 
0.03802113125890724 0.1762773843379498 822:1 3659:1 4080:1 5228:1 5765:1 6177:1 7035:1 7324:1 7892:1 8590:1 8693:1 9680:1 10049:1 10945:1 12100:1 12340:1 13083:1 15691:1 16473:1 17624:1 17841:1 18307:1 
0.09286268137780551 0.02255033144150246 311:1 358:1 654:1 1107:1 2975:1 3189:1 3884:1 4810:1 5094:1 5338:1 5591:1 5878:1 6667:1 6902:1 7527:1 7892:1 10069:1 11032:1 11461:1 12977:1 14115:1 17624:1 17629:1 17664:1 18245:1 18814:1 
0 0.005838440425121007 325:1 2452:1 4153:1 4394:1 5280:1 5322:1 5782:1 6669:1 7892:1 8547:1 8590:1 9533:1 10263:1 10508:1 11032:1 11596:1 12340:1 14366:1 14881:1 15854:1 16687:1 16792:1 17321:1 17693:1 
0 0.5076102739943349 1695:1 4120:1 5977:1 6802:1 11029:1 14496:1 
0.1711984489081636 0 822:1 1151:1 2038:1 2881:1 5591:1 6667:1 6847:1 6902:1 8775:1 11254:1 12959:1 12982:1 13703:1 14366:1 18307:1 18325:1 18605:1 
0.001623040430835572 0.2360676685735141 822:1 1907:1 2413:1 2453:1 2656:1 5094:1 7191:1 7527:1 7892:1 8856:1 10508:1 11862:1 15442:1 15603:1 19038:1 19474:1 19649:1 
0.02330139585849368 0 822:1 1151:1 1209:1 2413:1 3125:1 3197:1 4791:1 5977:1 10503:1 11029:1 12340:1 15075:1 17311:1 17522:1 17624:1 18494:1 
0 0.1018317822047309 112:1 822:1 2456:1 2552:1 2561:1 2790:1 5094:1 5530:1 5977:1 6168:1 6802:1 9060:1 9542:1 10558:1 11041:1 13083:1 13815:1 15500:1 16202:1 16587:1 17137:1 17624:1 18494:1 20189:1 
0.06521453182526653 0.1775983626190227 822:1 1734:1 3583:1 5878:1 5977:1 8429:1 8637:1 8938:1 10300:1 11711:1 11860:1 12540:1 13083:1 15152:1 15689:1 15918:1 17629:1 18673:1 
0.3450548007609514 0 822:1 1915:1 3583:1 4411:1 5381:1 5407:1 5977:1 7279:1 7423:1 7527:1 8340:1 8590:1 9823:1 11029:1 11114:1 11273:1 11973:1 12115:1 12157:1 12305:1 12709:1 15830:1 16468:1 17074:1 17913:1 19372:1 19726:1 19915:1 
0.04287796615247565 0.1183213428830981 144:1 1576:1 1770:1 2456:1 3692:1 4650:1 5977:1 6802:1 7298:1 7385:1 9902:1 10067:1 11913:1 17813:1 
0.04905621710045626 0 822:1 1048:1 1151:1 1310:1 3583:1 5977:1 6713:1 6808:1 7527:1 7892:1 9823:1 9952:1 10508:1 10572:1 11041:1 11047:1 12977:1 13226:1 13805:1 14366:1 15442:1 16542:1 17296:1 17624:1 17629:1 17910:1 18348:1 18447:1 
0.06100707691756597 0.2173800886786919 1234:1 5327:1 5591:1 9823:1 11037:1 11041:1 11219:1 14165:1 14807:1 15152:1 19982:1 20055:1 20079:1 
0.1563919957733096 0.2884235094592777 822:1 1343:1 1576:1 1581:1 5094:1 5977:1 6623:1 7423:1 7527:1 7575:1 7892:1 9772:1 9952:1 10508:1 11039:1 11862:1 12011:1 12172:1 12498:1 13083:1 13287:1 14932:1 15152:1 15299:1 17624:1 
0.5545786882262828 0 241:1 822:1 1048:1 1961:1 5105:1 9796:1 9823:1 10508:1 11114:1 15500:1 16468:1 17724:1 17813:1 18542:1 19532:1 19822:1 
0.3894656432264902 0.09831815755579271 2420:1 2597:1 2745:1 4800:1 5977:1 8019:1 10508:1 11041:1 11613:1 11862:1 12049:1 12340:1 15096:1 15854:1 16067:1 17629:1 17855:1 18129:1 
0 0.06608199592609262 3038:1 4091:1 4213:1 5977:1 6056:1 8491:1 8734:1 10510:1 11029:1 11041:1 12130:1 12441:1 12977:1 15131:1 15631:1 17624:1 18125:1 18245:1 19258:1 
0.1851952283278174 0.03754552229820379 822:1 1051:1 2881:1 3583:1 3592:1 4095:1 4452:1 5327:1 5977:1 6113:1 6570:1 6760:1 7779:1 8590:1 10508:1 11037:1 12343:1 12833:1 12957:1 13079:1 15152:1 15264:1 16380:1 17074:1 17624:1 19028:1 
0.07085917783818335 0.04099801436043992 822:1 5793:1 5977:1 6056:1 6492:1 6839:1 6842:1 7324:1 7868:1 8590:1 8734:1 9119:1 9192:1 9273:1 10241:1 10780:1 11646:1 11661:1 13063:1 14203:1 14459:1 14561:1 14951:1 15945:1 17870:1 18307:1 18680:1 19481:1 
0 0.4896816597475234 822:1 3583:1 4452:1 6094:1 6802:1 9670:1 10508:1 11924:1 13307:1 14366:1 16324:1 17624:1 
0 1 3583:1 5094:1 6056:1 10508:1 11032:1 11041:1 11692:1 14995:1 17610:1 19915:1 20070:1 
0 0.8769982651359051 822:1 1048:1 2413:1 2561:1 5094:1 5105:1 6669:1 7047:1 7391:1 8120:1 8268:1 9826:1 9921:1 10257:1 10508:1 11753:1 12340:1 13399:1 14339:1 17624:1 18664:1 20036:1 
0.1117286055770951 0.4414117014262113 144:1 822:1 844:1 1576:1 2450:1 3386:1 6802:1 7298:1 7892:1 10047:1 10357:1 10845:1 11029:1 11032:1 14049:1 14366:1 14551:1 14703:1 17074:1 17629:1 19888:1 
0 0.02962627868665471 822:1 1865:1 2366:1 2456:1 2561:1 3567:1 5977:1 6299:1 6492:1 6519:1 6836:1 8637:1 10510:1 10640:1 10658:1 11458:1 14445:1 16081:1 16812:1 17074:1 17629:1 18542:1 20207:1 
0 0.6645520366907376 1048:1 2561:1 5094:1 5407:1 5530:1 7527:1 8590:1 10399:1 11114:1 11727:1 12305:1 14127:1 14601:1 15500:1 17074:1 17296:1 17437:1 17525:1 17624:1 17629:1 17841:1 
0.1188719685348062 0.3300004869068855 799:1 822:1 2737:1 3804:1 5322:1 6313:1 7892:1 8379:1 8771:1 10479:1 10522:1 11041:1 11053:1 11501:1 11730:1 11996:1 13739:1 15172:1 15442:1 16046:1 16906:1 17074:1 17465:1 18790:1 
0.04933390414341183 0.2835569627819131 822:1 1048:1 1576:1 1762:1 3045:1 5967:1 5977:1 8531:1 8601:1 9823:1 10066:1 11032:1 11692:1 12340:1 17074:1 17821:1 20150:1 
0.3834735926113955 0.7415345191930408 395:1 1048:1 5977:1 6802:1 9119:1 9952:1 10450:1 11029:1 12694:1 14225:1 17610:1 
0.03418869597978146 0.4660285177982399 1048:1 1915:1 2456:1 5094:1 6802:1 8590:1 11029:1 12068:1 12977:1 13703:1 13728:1 14366:1 15500:1 15959:1 17082:1 17430:1 17624:1 
0 0.2299985049349003 822:1 824:1 979:1 1734:1 2335:1 3509:1 3989:1 5399:1 5851:1 5977:1 6056:1 7267:1 8849:1 8983:1 9681:1 9823:1 10508:1 10510:1 11041:1 11114:1 12130:1 12211:1 15075:1 15727:1 17074:1 17757:1 19525:1 19556:1 
0.08715462088544866 0 997:1 1048:1 2438:1 2561:1 2676:1 3583:1 3934:1 4421:1 4430:1 5977:1 6802:1 7892:1 8601:1 9494:1 10508:1 10522:1 11029:1 11501:1 12977:1 16208:1 17068:1 17074:1 17624:1 
0.2250186014331401 0 121:1 1576:1 7527:1 11029:1 11047:1 12977:1 13449:1 14995:1 16718:1 17522:1 18078:1 20166:1 
0.1058907881424581 0.07217342622081456 1048:1 5009:1 5977:1 7730:1 7892:1 8454:1 9056:1 10508:1 11544:1 13015:1 13719:1 15689:1 16421:1 16981:1 17624:1 19481:1 
0.128839208147886 0 728:1 822:1 914:1 1946:1 3476:1 3887:1 5496:1 5977:1 6667:1 6670:1 6822:1 7630:1 8191:1 10019:1 10049:1 10278:1 10508:1 11029:1 11711:1 12977:1 13359:1 14165:1 14492:1 14807:1 15830:1 16095:1 16394:1 17134:1 17629:1 17644:1 18348:1 18494:1 
0.1250263478447126 0.5042171771202386 2450:1 2456:1 2578:1 3583:1 3989:1 5977:1 6802:1 7330:1 8590:1 10630:1 11038:1 11041:1 14548:1 17670:1 17974:1 18158:1 
0 0.9368705959103699 822:1 4213:1 4430:1 8643:1 9533:1 11029:1 11032:1 11434:1 11995:1 12340:1 14366:1 14704:1 14881:1 16718:1 16729:1 17624:1 19584:1 
0 0.2042018798687208 442:1 613:1 822:1 2561:1 3830:1 5977:1 7050:1 8569:1 9554:1 10558:1 11041:1 13083:1 15667:1 15932:1 16336:1 17624:1 
0.002983258849324218 0.0969426707076908 408:1 1048:1 2550:1 5148:1 5812:1 5977:1 8601:1 9952:1 11029:1 11032:1 11692:1 11782:1 14706:1 15677:1 15689:1 16362:1 17136:1 17629:1 17644:1 18715:1 19926:1 
0 0.4973391589612466 1265:1 2413:1 2561:1 3659:1 5353:1 6625:1 6802:1 7115:1 7423:1 7582:1 7899:1 8800:1 9533:1 10067:1 11657:1 12340:1 12977:1 14881:1 15887:1 16718:1 16887:1 20155:1 
0.02482906374317593 0 64:1 541:1 822:1 2561:1 3627:1 4583:1 4837:1 5094:1 6172:1 6457:1 7527:1 7892:1 8135:1 8271:1 8887:1 9823:1 10508:1 11041:1 13083:1 15500:1 16338:1 16633:1 17031:1 17624:1 18490:1 
0.1362610460798397 0.1750462784578449 728:1 822:1 1845:1 2201:1 4447:1 4509:1 5878:1 5977:1 8334:1 8754:1 11041:1 11180:1 12096:1 12731:1 13026:1 13121:1 15075:1 16231:1 16812:1 19451:1 
0 0.162436000904599 3197:1 4601:1 5389:1 5415:1 5716:1 5977:1 8983:1 9108:1 9328:1 9725:1 10263:1 10467:1 11041:1 11047:1 11247:1 11481:1 11692:1 11711:1 12954:1 14146:1 14995:1 15854:1 16231:1 17074:1 17430:1 19514:1 
0 0.1957066944035431 1915:1 2413:1 2561:1 3583:1 4452:1 5094:1 5977:1 7020:1 9209:1 9952:1 11032:1 11458:1 12928:1 15500:1 15688:1 16067:1 16123:1 18292:1 18733:1 19612:1 
0.1510391918354854 0.05375684762544107 1576:1 2036:1 3887:1 3910:1 4876:1 6902:1 9264:1 9322:1 9423:1 9777:1 9823:1 10443:1 10508:1 11114:1 12977:1 13696:1 14027:1 14230:1 14270:1 15179:1 17040:1 17330:1 
0.09474854237023897 0.07537525890827945 999:1 1753:1 2524:1 4054:1 5977:1 6836:1 7908:1 10510:1 11711:1 12977:1 13322:1 14995:1 
0.09587062938609126 0.2301230848184612 2662:1 3692:1 5328:1 5954:1 6533:1 7423:1 7527:1 7892:1 8036:1 9952:1 11032:1 11130:1 11672:1 11967:1 12340:1 13287:1 14548:1 15400:1 17259:1 17629:1 17778:1 
0.352069478265757 0.1016693418874179 405:1 822:1 1166:1 1265:1 1753:1 1915:1 2561:1 3299:1 4354:1 4708:1 5698:1 6259:1 6667:1 6732:1 10079:1 10508:1 11862:1 12011:1 13879:1 14706:1 16083:1 17074:1 17670:1 19315:1 19626:1 
0.06194288288136948 0 822:1 2609:1 3869:1 4249:1 5094:1 5255:1 5415:1 5977:1 6680:1 6802:1 8590:1 9075:1 9823:1 10338:1 10558:1 11032:1 11433:1 11481:1 12711:1 12977:1 13083:1 13148:1 13728:1 17074:1 
0.1039292601360491 0 237:1 822:1 1343:1 1745:1 4026:1 4197:1 5530:1 5977:1 6806:1 8237:1 9408:1 9826:1 10049:1 10329:1 10754:1 12079:1 12753:1 13036:1 15305:1 16285:1 16602:1 16692:1 16857:1 16956:1 17629:1 18031:1 
0 0.2342094161291861 822:1 1434:1 2071:1 2213:1 5087:1 5977:1 7818:1 12340:1 14706:1 17074:1 17629:1 18245:1 
0.2853828618278976 0.3461964707957674 4614:1 6478:1 7423:1 7818:1 8019:1 8590:1 9051:1 9362:1 11047:1 12340:1 12977:1 14464:1 14995:1 15075:1 15782:1 17625:1 18129:1 18231:1 
0.0919837364723554 0.6807547537752876 1048:1 2561:1 7152:1 7888:1 8887:1 9823:1 10508:1 10658:1 11041:1 11114:1 11613:1 12340:1 13362:1 15318:1 17841:1 18243:1 
0.07000861418511112 0.5352012450840481 1048:1 2755:1 5977:1 6007:1 6802:1 8590:1 8601:1 9629:1 12340:1 14828:1 16081:1 17074:1 17507:1 17624:1 17813:1 19182:1 
0 0.07910772173477169 822:1 1505:1 1696:1 1734:1 1885:1 1960:1 2519:1 2561:1 6599:1 6667:1 7050:1 8122:1 9808:1 9823:1 11029:1 11032:1 11206:1 11392:1 11922:1 12907:1 12977:1 13092:1 14807:1 16812:1 17074:1 17117:1 18542:1 
0.005916049925429239 0.1767178961393773 2456:1 3659:1 5977:1 6777:1 7818:1 8590:1 12340:1 12946:1 12977:1 13246:1 13728:1 15169:1 15287:1 15667:1 16029:1 16679:1 17542:1 17629:1 18133:1 19998:1 
0 0.1283322890812189 2561:1 3255:1 3319:1 5082:1 6802:1 7093:1 7527:1 8271:1 8601:1 12977:1 13787:1 17670:1 17813:1 19013:1 20029:1 
0.09545251412111946 0.2303392439481825 553:1 822:1 1026:1 2456:1 3900:1 3912:1 4213:1 4354:1 5977:1 8590:1 8758:1 8848:1 9880:1 10099:1 10554:1 11032:1 11041:1 11162:1 11964:1 13760:1 14995:1 16363:1 16692:1 17074:1 20030:1 
0.3737113361020292 0 822:1 3602:1 5094:1 5591:1 5924:1 6177:1 6667:1 6902:1 7314:1 7661:1 10278:1 10443:1 10564:1 11032:1 11284:1 11636:1 11711:1 13641:1 14640:1 17644:1 17724:1 19822:1 
0.149612359299689 0.5421786301138365 822:1 1576:1 2456:1 3255:1 3439:1 4411:1 4471:1 4499:1 6808:1 6822:1 7527:1 7915:1 14366:1 14807:1 15121:1 16067:1 16792:1 17910:1 20055:1 
0 0.07099090819400747 822:1 1095:1 2456:1 2561:1 3255:1 3665:1 5706:1 6324:1 6802:1 7527:1 8068:1 10128:1 10508:1 11047:1 11458:1 12977:1 14034:1 14496:1 15706:1 17074:1 18542:1 
0 0.3370969688698998 1048:1 1265:1 3421:1 5009:1 5977:1 5990:1 6268:1 7136:1 8590:1 9533:1 9708:1 10099:1 11924:1 12340:1 12489:1 12656:1 14881:1 15854:1 
0 0.1497274894499627 822:1 1025:1 5094:1 6235:1 6802:1 7527:1 7892:1 12305:1 12977:1 13728:1 13751:1 14366:1 14995:1 15327:1 15689:1 16213:1 17624:1 18307:1 19915:1 
0.007945455770185728 0.3096873053107335 822:1 2561:1 2737:1 3386:1 3602:1 6267:1 6802:1 6836:1 9362:1 9816:1 10508:1 10825:1 11029:1 14366:1 14551:1 17646:1 
0 1 753:1 1498:1 1622:1 1915:1 2413:1 2561:1 3255:1 4453:1 5094:1 11041:1 
0.4236684750470524 0.1968989964161922 822:1 1028:1 1734:1 3583:1 4660:1 5851:1 5977:1 11711:1 15019:1 16201:1 17629:1 
0.05659491139971128 0.2036857003928811 294:1 2456:1 3583:1 5009:1 5094:1 5682:1 5977:1 6465:1 7818:1 8271:1 9408:1 9952:1 11598:1 12718:1 13015:1 16285:1 16692:1 17577:1 17624:1 18129:1 19915:1 
0.05140757761091535 0.1616181000956564 822:1 1149:1 2413:1 2467:1 2559:1 2799:1 5977:1 7380:1 7527:1 7892:1 8538:1 10508:1 11273:1 11758:1 12657:1 12977:1 14366:1 15174:1 15327:1 15345:1 15917:1 16468:1 17074:1 17224:1 17644:1 18245:1 18542:1 18658:1 
0.5121743787415772 0.6430011190008046 822:1 2561:1 5094:1 6802:1 9590:1 9823:1 10508:1 11029:1 11458:1 11914:1 11924:1 12130:1 15867:1 16473:1 17873:1 18825:1 18829:1 
0.2865616948234223 0.5585657220564371 241:1 822:1 2245:1 2456:1 2561:1 2964:1 3255:1 3928:1 6070:1 6533:1 6570:1 8887:1 9823:1 10508:1 11458:1 11959:1 15648:1 17624:1 18919:1 19665:1 20055:1 20113:1 
0.1608284321259908 0.5766157528967377 1343:1 1734:1 5094:1 5977:1 6177:1 6806:1 6822:1 10049:1 11029:1 11032:1 11340:1 14169:1 16602:1 16692:1 17074:1 17624:1 17629:1 17813:1 19128:1 
0.1271478556061937 0 52:1 261:1 1024:1 3344:1 3455:1 3692:1 4515:1 4849:1 6670:1 8186:1 10049:1 10508:1 10811:1 11029:1 11032:1 15096:1 15575:1 16812:1 16981:1 17813:1 18494:1 18542:1 20105:1 
0 0.0938341687180982 682:1 822:1 1170:1 2453:1 2561:1 3899:1 4453:1 5118:1 5322:1 5977:1 6000:1 6373:1 6400:1 7029:1 10262:1 10455:1 11327:1 14776:1 16692:1 17629:1 
0.1034825073591751 0.4009660530412039 822:1 1023:1 1548:1 2201:1 2413:1 2456:1 2561:1 2737:1 3692:1 3693:1 5094:1 5977:1 7818:1 9427:1 10170:1 11711:1 12397:1 12943:1 13036:1 15253:1 15521:1 19258:1 
0.1516679038879097 0.06789591016444269 1048:1 1740:1 2109:1 2561:1 3659:1 5977:1 7892:1 8590:1 8887:1 9633:1 10455:1 11029:1 11938:1 12340:1 13083:1 17010:1 17522:1 17624:1 17629:1 17997:1 18490:1 19915:1 
0.0742807734168312 1 1221:1 1505:1 3356:1 5259:1 11041:1 12340:1 13072:1 14366:1 15945:1 17349:1 
0 0.2469626134546404 822:1 2453:1 3272:1 5094:1 5878:1 5977:1 6451:1 7145:1 7818:1 7892:1 8396:1 8601:1 9573:1 10508:1 10510:1 11029:1 11032:1 11041:1 12343:1 13446:1 15152:1 17074:1 18494:1 19429:1 20234:1 
0 0.03143393431662784 1695:1 2561:1 3255:1 5009:1 5094:1 5977:1 7510:1 7527:1 7661:1 7892:1 9952:1 10399:1 11041:1 13015:1 15818:1 16669:1 17028:1 17624:1 18292:1 
0.05946883527028191 0 2048:1 3887:1 5094:1 5327:1 5786:1 6902:1 7279:1 7649:1 7980:1 8380:1 9210:1 10508:1 10926:1 11616:1 
0 0.1490246862208604 728:1 1611:1 3659:1 5094:1 5127:1 5977:1 6533:1 6822:1 11029:1 12100:1 13463:1 16122:1 17813:1 18307:1 19915:1 
0.07626620241771749 0 144:1 1453:1 5094:1 5238:1 5743:1 6267:1 7527:1 7818:1 7888:1 7892:1 8328:1 9926:1 10805:1 11661:1 12130:1 12797:1 12977:1 13764:1 13815:1 15033:1 15152:1 16473:1 18854:1 19532:1 19883:1 
0.2299045535166282 0.1289284585288138 799:1 822:1 1265:1 2048:1 2561:1 3659:1 4849:1 5087:1 6392:1 6577:1 7302:1 7818:1 8863:1 9952:1 10825:1 11792:1 11922:1 11924:1 14421:1 15854:1 18307:1 18608:1 
0 0.09795981824918387 822:1 2691:1 2964:1 5086:1 5094:1 5156:1 5977:1 6759:1 7184:1 7991:1 8443:1 9322:1 9823:1 10508:1 11738:1 12746:1 13121:1 14165:1 14995:1 16009:1 17201:1 17739:1 18778:1 
0.1404241060715299 0.1042641864139829 9:1 144:1 306:1 822:1 1048:1 1960:1 2413:1 5767:1 6056:1 6670:1 6822:1 7068:1 7644:1 7892:1 9464:1 9733:1 9823:1 10963:1 11991:1 12693:1 13815:1 14210:1 14359:1 14800:1 18245:1 19666:1 
0.1323586194104451 0.190049639633975 23:1 822:1 1048:1 3529:1 5977:1 7710:1 7892:1 8031:1 10745:1 11029:1 11032:1 11041:1 11735:1 14442:1 16370:1 16534:1 16693:1 16812:1 18489:1 
0 0.2251964655210994 822:1 904:1 1734:1 3020:1 6802:1 7050:1 7892:1 10508:1 10890:1 11725:1 12340:1 14346:1 14807:1 16578:1 17037:1 17074:1 17417:1 17624:1 
0 0.7700704963537701 205:1 1048:1 5094:1 5977:1 6713:1 8271:1 9035:1 10049:1 10508:1 11425:1 11711:1 13207:1 17629:1 19481:1 
0 0.07967441891280574 470:1 483:1 822:1 1498:1 5094:1 5526:1 5977:1 6056:1 6802:1 7438:1 10927:1 11041:1 11155:1 12977:1 15491:1 16299:1 16983:1 17629:1 19457:1 19781:1 19915:1 
0.1295942940966806 0.04564865703428637 822:1 1187:1 1716:1 2552:1 3390:1 4301:1 5977:1 6836:1 7892:1 9542:1 10510:1 10593:1 12311:1 12340:1 13807:1 15180:1 15689:1 16468:1 17624:1 17629:1 19397:1 
0.02420124222942093 0.1826854792964121 838:1 2223:1 3659:1 5297:1 6945:1 8538:1 10508:1 11010:1 11041:1 11711:1 12340:1 12421:1 14784:1 15075:1 15136:1 16335:1 17022:1 17074:1 20148:1 
0 0.4239457125287314 447:1 1734:1 3318:1 5977:1 8194:1 8353:1 8379:1 10479:1 10508:1 11041:1 13699:1 14405:1 16692:1 17074:1 17386:1 17629:1 17788:1 
0.2109252769345945 0.4958973326104708 1800:1 2413:1 2561:1 3128:1 3840:1 4354:1 5415:1 5977:1 6634:1 6666:1 7913:1 9322:1 9509:1 9970:1 10508:1 11041:1 11047:1 11481:1 11950:1 12977:1 13815:1 14925:1 14995:1 15179:1 16025:1 16468:1 16692:1 18785:1 19258:1 
0.1883384460524713 1 891:1 1593:1 1719:1 2561:1 3659:1 3700:1 5094:1 5399:1 5977:1 8135:1 8590:1 8734:1 13815:1 15345:1 16692:1 17670:1 17813:1 18307:1 18668:1 20050:1 
0 0.225939433236347 138:1 822:1 1753:1 1810:1 4063:1 5094:1 5575:1 5977:1 6713:1 7050:1 9572:1 10508:1 10510:1 10799:1 11041:1 11862:1 12239:1 14507:1 14556:1 14852:1 15152:1 15575:1 15689:1 16757:1 20150:1 
0.008299920211134708 0.0634455424251652 799:1 1265:1 1434:1 4708:1 6272:1 7527:1 7892:1 10508:1 11032:1 11041:1 11924:1 12040:1 14548:1 16473:1 17441:1 
0.1071380237819243 0.4882926283841212 179:1 298:1 1048:1 2561:1 2802:1 5870:1 5977:1 6478:1 7818:1 7892:1 8263:1 8590:1 9572:1 11692:1 12340:1 12659:1 12977:1 12983:1 13233:1 14366:1 16370:1 17026:1 17629:1 20234:1 
0.04967632557386326 0 144:1 5238:1 5977:1 6802:1 6836:1 7050:1 7818:1 8601:1 11041:1 11358:1 11725:1 13015:1 13719:1 17082:1 17430:1 
0.5006788640167208 0.8749782615996134 112:1 868:1 1818:1 2413:1 5094:1 5967:1 7892:1 10508:1 12322:1 19106:1 19725:1 20105:1 
0.1705342674198745 0.2815777394368332 362:1 822:1 1048:1 1319:1 5977:1 6177:1 7892:1 7945:1 8186:1 8601:1 9659:1 11041:1 12041:1 13038:1 17093:1 18494:1 18512:1 19457:1 20105:1 
0.04680723958132279 0.3422517885619622 2456:1 3583:1 5106:1 5407:1 5977:1 6802:1 12305:1 12439:1 12977:1 15575:1 17074:1 17813:1 18115:1 
0.008722417803993012 0.09231229162145456 584:1 822:1 2241:1 2456:1 2561:1 4563:1 4947:1 5094:1 5841:1 5977:1 5983:1 6064:1 7818:1 8641:1 9533:1 11041:1 11114:1 12340:1 14881:1 16081:1 17074:1 20079:1 20207:1 
0 0.1052531430838771 1151:1 2413:1 2599:1 5094:1 9119:1 11032:1 12280:1 12340:1 13668:1 14729:1 17074:1 
0.02853709848906568 0.5198576681639778 2456:1 3659:1 3674:1 4650:1 5977:1 6105:1 6519:1 7527:1 7875:1 7979:1 11041:1 11613:1 11924:1 11995:1 12130:1 12977:1 14778:1 16461:1 17624:1 18245:1 19481:1 
0 0.1815454352295361 822:1 1048:1 2038:1 3907:1 4846:1 5094:1 5259:1 6526:1 7153:1 7198:1 10262:1 10508:1 13815:1 14366:1 15667:1 15727:1 16612:1 16621:1 17074:1 17758:1 17943:1 18347:1 
0 0.2221608065592159 822:1 1132:1 2036:1 3057:1 4026:1 4255:1 5343:1 5977:1 6452:1 6669:1 7423:1 7527:1 7949:1 10508:1 10620:1 11047:1 14706:1 15128:1 15335:1 15854:1 16661:1 16752:1 16792:1 18338:1 19098:1 19957:1 
0.1118440731718988 0.06049857937553217 121:1 914:1 983:1 2036:1 4160:1 4810:1 5088:1 6667:1 9988:1 11350:1 11711:1 12115:1 12129:1 15179:1 15262:1 15626:1 18246:1 20166:1 
0 0.1914117767926926 2561:1 3255:1 4788:1 4796:1 5094:1 5327:1 7527:1 11037:1 11041:1 12977:1 13015:1 13815:1 
0.1250727915206823 0.1933434052471752 510:1 822:1 5009:1 5411:1 5977:1 6802:1 9533:1 9826:1 10508:1 10570:1 12928:1 13331:1 14881:1 15461:1 17624:1 17629:1 19258:1 19612:1 
0.06481405633152353 0 799:1 2456:1 2561:1 2609:1 3583:1 3610:1 3989:1 4515:1 6716:1 7818:1 8307:1 9756:1 11053:1 12806:1 13148:1 13459:1 13955:1 15096:1 16023:1 
0 0.3063110081814288 1250:1 2456:1 2497:1 3941:1 5977:1 6478:1 8266:1 10454:1 11041:1 12340:1 13067:1 16067:1 17074:1 17624:1 18330:1 
0.120282420780312 0.1616414974503626 144:1 720:1 1418:1 3037:1 5094:1 5322:1 5977:1 6198:1 7892:1 8887:1 9823:1 11047:1 11711:1 11922:1 13307:1 13578:1 15096:1 15469:1 16324:1 17282:1 17624:1 17644:1 17694:1 18443:1 18542:1 19476:1 
0.1396060598010322 0.5350842482835911 1734:1 3020:1 3659:1 5431:1 5878:1 5977:1 7667:1 8590:1 10099:1 11029:1 12340:1 12367:1 12977:1 13495:1 15818:1 16927:1 17629:1 18506:1 
0 0.2172297835698511 1695:1 2561:1 5009:1 5094:1 5698:1 6670:1 7438:1 7527:1 7697:1 11032:1 12130:1 12631:1 12977:1 13742:1 14787:1 16258:1 17074:1 17515:1 17624:1 18158:1 18919:1 
0.1679246306124002 0.1226265459379184 393:1 822:1 1048:1 1265:1 1818:1 3299:1 6670:1 6970:1 7178:1 7438:1 8021:1 8349:1 9572:1 10166:1 11053:1 12423:1 14264:1 14807:1 15500:1 16081:1 16857:1 17074:1 17278:1 17624:1 17678:1 18494:1 18619:1 19915:1 
0.223697255957274 0.6062074674870452 241:1 822:1 1048:1 2561:1 2964:1 4453:1 5094:1 5698:1 5977:1 7527:1 8601:1 8887:1 11041:1 12585:1 14089:1 14091:1 16394:1 17771:1 19448:1 
0.05273451246377134 0.833477873643193 822:1 1647:1 3583:1 3630:1 3693:1 4946:1 5300:1 5977:1 7298:1 10508:1 11029:1 11032:1 16812:1 18307:1 18312:1 19532:1 20238:1 
0.04364297991099002 0.1937730166309995 292:1 3578:1 3630:1 3659:1 4149:1 4324:1 4836:1 7267:1 7361:1 7423:1 7527:1 7618:1 10508:1 12977:1 13682:1 17841:1 18665:1 19915:1 19921:1 20106:1 
0.1849282996651679 0.1271937686478348 822:1 1697:1 3596:1 4157:1 4810:1 5094:1 7279:1 9457:1 10508:1 10534:1 12932:1 13153:1 13640:1 13901:1 15128:1 15724:1 17560:1 18475:1 18778:1 19076:1 
0.9603242306899326 0 64:1 822:1 2197:1 4674:1 5476:1 5591:1 6056:1 6667:1 8135:1 9690:1 10264:1 11029:1 13167:1 13719:1 17037:1 
0.05547034905421296 0.1883992748796889 807:1 822:1 1048:1 1151:1 2561:1 2874:1 3047:1 4354:1 5259:1 6802:1 9725:1 9764:1 10508:1 12340:1 13397:1 14986:1 15063:1 19258:1 19481:1 
0.1577583072787968 0.3561436831227531 822:1 914:1 2971:1 3887:1 4198:1 5094:1 6452:1 7196:1 7949:1 9404:1 9823:1 10443:1 10508:1 13400:1 13458:1 14161:1 15128:1 16752:1 16866:1 
0 0.2238586897952293 728:1 1048:1 1161:1 2323:1 2558:1 2561:1 3659:1 5094:1 5341:1 5977:1 7818:1 8454:1 11029:1 12977:1 13015:1 14136:1 16473:1 17624:1 17869:1 18245:1 18307:1 19971:1 
0 0.06297039449922731 266:1 620:1 647:1 2413:1 5083:1 8590:1 8728:1 10508:1 11032:1 11114:1 11926:1 12977:1 15355:1 15667:1 17415:1 17643:1 18078:1 
0.2940358843117191 0.1768049717173132 499:1 822:1 983:1 2450:1 2850:1 2971:1 3128:1 3928:1 4172:1 5094:1 6667:1 7527:1 8601:1 9322:1 9736:1 10508:1 11047:1 14548:1 14597:1 15854:1 16610:1 17074:1 18494:1 18512:1 19336:1 
0.1273577501810487 0.3208764070275368 1915:1 2561:1 3226:1 4540:1 6802:1 11114:1 11416:1 11725:1 13714:1 14706:1 15689:1 18542:1 20231:1 
0.1100245206003737 0.2471643499370046 1034:1 1810:1 2222:1 5415:1 6414:1 7527:1 9823:1 10047:1 10508:1 10970:1 12340:1 12977:1 13838:1 14807:1 14881:1 15152:1 17074:1 17446:1 17910:1 18129:1 18245:1 18542:1 
0 0.7883198751653738 376:1 728:1 2436:1 3583:1 4674:1 5977:1 8734:1 10145:1 11041:1 11495:1 16416:1 16692:1 
0 0.3587341939412083 883:1 1048:1 2310:1 2413:1 2561:1 3887:1 4580:1 5094:1 5977:1 6452:1 7020:1 7527:1 10283:1 10508:1 11041:1 11114:1 12059:1 12801:1 12977:1 14693:1 15460:1 17296:1 17624:1 18410:1 19481:1 19574:1 19626:1 20286:1 
0.009218394569873641 0.1058753539005141 144:1 822:1 985:1 1048:1 1915:1 2066:1 2450:1 2561:1 3299:1 3583:1 5399:1 6254:1 6802:1 8021:1 10722:1 11029:1 11041:1 11114:1 12100:1 12130:1 13061:1 13731:1 13764:1 14366:1 14995:1 15500:1 15523:1 17068:1 19635:1 19915:1 
0 0.9245146687089474 822:1 1048:1 3955:1 5094:1 5399:1 5991:1 6713:1 7892:1 9659:1 10049:1 11924:1 12669:1 16067:1 16792:1 17624:1 17910:1 18059:1 18494:1 
0 0.07035846100793984 144:1 298:1 355:1 822:1 1753:1 2737:1 3583:1 5322:1 6822:1 7661:1 7892:1 9572:1 9796:1 9823:1 10983:1 11114:1 11128:1 13002:1 14155:1 14548:1 17074:1 17240:1 17581:1 18307:1 19154:1 19971:1 
0.1120864557359613 0.4433788076578669 486:1 822:1 1048:1 1789:1 2413:1 3659:1 5094:1 5977:1 7818:1 8429:1 9823:1 12340:1 12371:1 12659:1 14897:1 15143:1 15442:1 15706:1 16029:1 17452:1 17629:1 17913:1 
0.4285996875556574 0.7376139569747224 621:1 822:1 2450:1 5094:1 5415:1 5490:1 5977:1 6670:1 7272:1 7939:1 9823:1 10499:1 11653:1 11922:1 12011:1 13038:1 13446:1 14807:1 
0 1 566:1 1434:1 2413:1 2737:1 6027:1 9823:1 11041:1 12770:1 15318:1 17074:1 17841:1 
0 0.9774782163641436 822:1 2377:1 2456:1 2561:1 3583:1 3615:1 5094:1 5977:1 5985:1 7527:1 9090:1 9108:1 9590:1 10508:1 10509:1 12423:1 13062:1 14919:1 15107:1 16067:1 17074:1 17624:1 17826:1 19258:1 20029:1 
0 0.1190779372866956 131:1 629:1 2561:1 4248:1 4872:1 5239:1 5977:1 7772:1 9534:1 10508:1 10963:1 11692:1 12313:1 12340:1 12492:1 12977:1 13288:1 13846:1 15514:1 17074:1 17624:1 18822:1 
0 0.04224510961580975 1028:1 1295:1 2447:1 2561:1 5094:1 5977:1 7818:1 9328:1 9823:1 10328:1 11029:1 11041:1 11247:1 11251:1 12423:1 12977:1 13015:1 13320:1 15152:1 17296:1 17522:1 18307:1 18490:1 18903:1 
0.1841030459234386 0.1022764277967562 822:1 883:1 1915:1 2004:1 2561:1 2895:1 3338:1 3583:1 4337:1 6667:1 7892:1 11029:1 12662:1 13689:1 13901:1 13938:1 14084:1 14816:1 15791:1 15830:1 15854:1 16857:1 17594:1 18307:1 19154:1 
0.1182842716936762 0.06836064940635771 822:1 1960:1 2561:1 3583:1 4120:1 5094:1 5878:1 6836:1 7108:1 7892:1 8634:1 10049:1 10171:1 10510:1 11093:1 11691:1 12707:1 12915:1 13405:1 14142:1 15521:1 15718:1 17644:1 18951:1 19203:1 19915:1 
0.1498629194305404 0 199:1 822:1 1505:1 2413:1 3887:1 4889:1 5415:1 5977:1 6667:1 7565:1 8454:1 9823:1 10263:1 11039:1 12161:1 12872:1 14881:1 14995:1 15500:1 15771:1 17596:1 17913:1 18287:1 18542:1 
0.158039220496309 0 799:1 822:1 1576:1 2418:1 2453:1 2458:1 5400:1 5415:1 6836:1 7219:1 9468:1 9823:1 10508:1 10825:1 11114:1 13083:1 13483:1 14460:1 15500:1 18284:1 18542:1 19020:1 19129:1 19258:1 20273:1 
0.06027655611231613 0 822:1 1555:1 2561:1 3583:1 3634:1 3930:1 4197:1 5094:1 5400:1 5973:1 7527:1 7892:1 8734:1 9362:1 9456:1 9823:1 10405:1 11711:1 11914:1 12436:1 12944:1 12977:1 15822:1 16578:1 18675:1 19265:1 
0 0.03162787317082404 822:1 984:1 1138:1 1505:1 1576:1 2413:1 2456:1 3139:1 3659:1 4052:1 5009:1 6625:1 8716:1 11029:1 12113:1 12340:1 12939:1 16465:1 19485:1 
0.1941712638222608 0.3191910302710106 2456:1 3583:1 5827:1 5977:1 6802:1 7298:1 7818:1 10145:1 11196:1 12977:1 13232:1 14706:1 15096:1 15152:1 15689:1 16416:1 16714:1 
0.11378362229561 0.5701886454470599 167:1 1048:1 2456:1 2731:1 3583:1 3837:1 4276:1 5977:1 6056:1 7319:1 7644:1 7892:1 8590:1 8601:1 9823:1 9952:1 10250:1 11676:1 11991:1 18245:1 19915:1 
0.7466545096078659 0.4655431105007195 822:1 1915:1 2447:1 2561:1 5977:1 6802:1 9823:1 10145:1 10184:1 10263:1 11637:1 13815:1 15096:1 15152:1 15500:1 16416:1 18542:1 19514:1 20070:1 
0 0.5536614161778342 822:1 1548:1 2881:1 5094:1 5219:1 5977:1 6670:1 11029:1 14366:1 15762:1 16521:1 16812:1 17624:1 18569:1 19525:1 
0.08554600265299271 0 297:1 429:1 1048:1 2036:1 2048:1 2947:1 3152:1 4812:1 4870:1 5292:1 5677:1 5783:1 5977:1 6527:1 6802:1 6822:1 9322:1 10278:1 10508:1 11029:1 11032:1 11558:1 12562:1 12977:1 15179:1 15296:1 17767:1 19915:1 
0.1144936452626769 0.2578539374925903 2210:1 2413:1 3659:1 3847:1 5280:1 5392:1 7892:1 8073:1 8590:1 9221:1 9839:1 10508:1 11711:1 12340:1 15075:1 15521:1 15790:1 15854:1 19635:1 19704:1 20096:1 
0.1954468632374972 0.5497729017769065 984:1 3139:1 5009:1 6056:1 8019:1 11032:1 12939:1 12977:1 15854:1 18129:1 19074:1 19485:1 
0.01706962137659135 0.5137793989131869 822:1 1048:1 2456:1 5977:1 6059:1 6125:1 6172:1 6254:1 7286:1 7818:1 7892:1 8887:1 9035:1 9926:1 10316:1 10927:1 11041:1 11305:1 11398:1 11692:1 11939:1 11996:1 17018:1 17624:1 19232:1 19915:1 
0.08244890922858324 0 822:1 3583:1 4452:1 5977:1 6327:1 6902:1 7991:1 8601:1 8916:1 10832:1 11814:1 13670:1 13938:1 14072:1 16861:1 17720:1 18016:1 
0.03634833522746293 0 450:1 822:1 1634:1 1915:1 2456:1 2540:1 2561:1 3583:1 3692:1 3934:1 5094:1 5977:1 8530:1 8637:1 8757:1 11267:1 11698:1 11824:1 17624:1 17629:1 18245:1 18306:1 18542:1 
0.06581219876341225 0.1990270719988366 822:1 1048:1 1206:1 1337:1 2576:1 3887:1 3989:1 5094:1 5327:1 5977:1 6056:1 6802:1 9243:1 9823:1 9926:1 10508:1 11037:1 11041:1 14353:1 14366:1 14597:1 14828:1 15152:1 17296:1 
0.188068986237706 0 2413:1 2561:1 2881:1 3224:1 5094:1 5915:1 6802:1 7662:1 8637:1 8877:1 10508:1 11041:1 11114:1 13764:1 16739:1 17074:1 17491:1 19492:1 19845:1 
0.07742174001021906 0.4740786604832465 822:1 1048:1 2561:1 2869:1 5322:1 5977:1 6106:1 9823:1 11247:1 12678:1 13226:1 13459:1 14366:1 14995:1 15442:1 17074:1 17430:1 19584:1 
0.09408111500037089 0.02046115358582083 822:1 1622:1 2413:1 2552:1 5094:1 5350:1 5414:1 5977:1 6961:1 7937:1 9533:1 10266:1 10508:1 11448:1 11725:1 13226:1 14881:1 15012:1 16226:1 16422:1 17624:1 18130:1 18806:1 18935:1 
0 0.2552206894622476 1781:1 1874:1 2413:1 2561:1 3692:1 3693:1 5094:1 5400:1 5977:1 6802:1 6970:1 7435:1 9572:1 9823:1 10416:1 10963:1 11032:1 11725:1 12130:1 14876:1 15500:1 15790:1 
0.2271992162904255 0.292043620605569 2453:1 2737:1 5977:1 8590:1 10243:1 10430:1 11029:1 12340:1 13099:1 14930:1 17913:1 
0 0.124036727880764 1940:1 4430:1 4674:1 6802:1 9317:1 10145:1 10510:1 11032:1 11495:1 11725:1 11924:1 12998:1 16416:1 17629:1 
0.05159301293151385 0 1914:1 2348:1 5394:1 5977:1 6836:1 10510:1 11029:1 17629:1 17913:1 18233:1 
0.2411090335629499 0.01340969100669893 822:1 3659:1 4698:1 4812:1 5080:1 5094:1 6981:1 7422:1 9990:1 10361:1 10443:1 10508:1 11039:1 11353:1 12682:1 12985:1 13202:1 14706:1 18016:1 18307:1 
0.04215259614460742 0 64:1 241:1 989:1 1048:1 2561:1 5977:1 6836:1 7254:1 7818:1 8057:1 8590:1 9293:1 9590:1 9823:1 9826:1 10508:1 10510:1 11029:1 11032:1 11047:1 11458:1 11770:1 12707:1 14548:1 15677:1 19318:1 19921:1 
0 0.06868227019674601 1048:1 1695:1 2447:1 2453:1 5094:1 5138:1 5356:1 6721:1 7113:1 7527:1 8491:1 8775:1 9823:1 11727:1 12000:1 12340:1 12890:1 16067:1 17296:1 17624:1 18542:1 
0.3582730773271031 0 822:1 1166:1 1265:1 1567:1 3887:1 4076:1 4198:1 5591:1 6177:1 6534:1 6537:1 7107:1 7939:1 7980:1 9423:1 9823:1 10266:1 10640:1 11032:1 11041:1 11133:1 11386:1 11924:1 13458:1 14512:1 17074:1 19076:1 
0 0.323334340627467 2561:1 3790:1 3989:1 5094:1 5977:1 6056:1 6267:1 7527:1 7550:1 7644:1 7892:1 10275:1 11041:1 12977:1 14706:1 17074:1 17296:1 17522:1 17738:1 17846:1 18542:1 
0.01811046759823071 0 834:1 1734:1 1753:1 1818:1 2456:1 3135:1 3583:1 4246:1 5977:1 6936:1 8444:1 8528:1 8601:1 10145:1 11458:1 12020:1 12977:1 13764:1 14394:1 15500:1 15973:1 16201:1 16817:1 17074:1 17629:1 19258:1 
0.05729213988624063 0.06602229419897322 1190:1 1399:1 1753:1 2330:1 3659:1 5421:1 6669:1 6822:1 8590:1 9533:1 10049:1 10508:1 11029:1 11149:1 11546:1 11596:1 12340:1 13265:1 13728:1 14307:1 14881:1 16602:1 17629:1 19704:1 
0 0.3729902656952211 822:1 1695:1 2561:1 3045:1 4390:1 5094:1 6533:1 7661:1 7956:1 9823:1 10405:1 11032:1 11041:1 11893:1 12959:1 13038:1 
0.1020667673452764 0.2189201454618796 822:1 1048:1 2413:1 3583:1 4286:1 5977:1 7855:1 8241:1 8721:1 9192:1 9329:1 9817:1 11711:1 12185:1 12529:1 12910:1 13331:1 14552:1 16263:1 18286:1 18307:1 18640:1 
0 0.1932044544965802 1024:1 2230:1 2413:1 2450:1 2561:1 5111:1 5977:1 8590:1 10009:1 10508:1 11029:1 11247:1 12104:1 12130:1 12340:1 12977:1 15942:1 16303:1 16346:1 16629:1 17522:1 
0.09070387386254439 0 311:1 1379:1 1620:1 1695:1 2087:1 3887:1 5094:1 5591:1 6085:1 6802:1 7980:1 7991:1 9146:1 9952:1 12448:1 12535:1 12580:1 14072:1 15500:1 15575:1 16623:1 17296:1 18394:1 19444:1 20153:1 
0.1887061994452047 0.7505879692906914 128:1 1048:1 2561:1 3299:1 5009:1 5977:1 7611:1 7892:1 9002:1 11029:1 11458:1 14366:1 14416:1 14995:1 17624:1 17629:1 17861:1 
0 0.2488259357273905 822:1 1265:1 2456:1 2561:1 2881:1 4354:1 5094:1 6802:1 7423:1 8601:1 8904:1 10508:1 12018:1 12130:1 12977:1 13442:1 14807:1 14894:1 16067:1 17074:1 20159:1 
0.1681067433619689 0 2048:1 2561:1 3255:1 5977:1 6007:1 11558:1 17624:1 19196:1 19999:1 
0 0.02828567994287766 799:1 822:1 1555:1 2519:1 2693:1 3934:1 5094:1 5415:1 5698:1 6177:1 6519:1 7818:1 7892:1 9127:1 9696:1 9823:1 10049:1 11041:1 11047:1 15075:1 15172:1 15496:1 16894:1 17813:1 17910:1 18455:1 20122:1 20131:1 
0.2474848991951298 0.4782199939745531 822:1 983:1 1232:1 1962:1 3591:1 3659:1 4674:1 5088:1 6534:1 7217:1 7727:1 12630:1 13747:1 14259:1 15667:1 16084:1 17629:1 18880:1 19397:1 19549:1 19648:1 
0.009471531876611676 0.06474781355873202 822:1 1048:1 2561:1 3692:1 4107:1 5094:1 5977:1 7892:1 8117:1 9208:1 9247:1 9739:1 10275:1 10556:1 11692:1 12977:1 14832:1 15345:1 15732:1 17074:1 17629:1 18728:1 
0.1856198449949344 0.6893736112280411 822:1 1121:1 3494:1 3659:1 4570:1 4818:1 5977:1 6822:1 8105:1 9119:1 10413:1 10508:1 11114:1 13728:1 14366:1 16812:1 17629:1 17865:1 18746:1 19584:1 
0.01549416332234464 0.1831598817242356 822:1 1818:1 2453:1 5094:1 5216:1 5399:1 5977:1 6033:1 6630:1 7527:1 9823:1 10508:1 11782:1 14226:1 14926:1 17074:1 18041:1 20192:1 
0.03708461802960846 0.0008084601071371584 822:1 1576:1 1952:1 3692:1 5977:1 6056:1 6705:1 7267:1 8018:1 8356:1 9823:1 9952:1 10443:1 10508:1 11047:1 11114:1 11620:1 11833:1 14807:1 16522:1 16578:1 16981:1 17074:1 17813:1 18129:1 18411:1 19481:1 
0 0.08027180349927664 822:1 1141:1 2280:1 2456:1 2561:1 3123:1 3255:1 4282:1 4354:1 4453:1 4703:1 5977:1 6672:1 7020:1 10558:1 11041:1 11140:1 11992:1 13083:1 16267:1 16857:1 17473:1 17624:1 18245:1 
0.07503235799337497 0.5675275647187324 1090:1 2202:1 2561:1 3255:1 4764:1 5094:1 5259:1 5397:1 5415:1 5977:1 6519:1 8135:1 8326:1 9823:1 11047:1 11458:1 11753:1 15152:1 15591:1 15689:1 16718:1 17432:1 17441:1 17626:1 17629:1 18245:1 19258:1 
0.145694191851287 0.470043047041918 2695:1 4515:1 4674:1 5094:1 5977:1 10145:1 11795:1 14366:1 16416:1 
0.01979157952631503 0 728:1 822:1 1048:1 2230:1 2447:1 2561:1 3583:1 4453:1 5094:1 5977:1 6713:1 9823:1 10266:1 11032:1 11367:1 11895:1 12977:1 13129:1 14393:1 14563:1 15152:1 17629:1 18208:1 18222:1 19255:1 19915:1 
0 0.04482588730870735 822:1 1978:1 5698:1 6667:1 6802:1 7527:1 7952:1 8019:1 9952:1 10508:1 11032:1 11041:1 11481:1 12157:1 13083:1 14416:1 14821:1 15075:1 16794:1 17814:1 18105:1 18664:1 20055:1 
0.09617984713488821 0.3588221066004038 879:1 1576:1 1915:1 2413:1 2453:1 2701:1 5094:1 6056:1 6822:1 8775:1 9826:1 9877:1 9952:1 10049:1 10508:1 11029:1 11088:1 11692:1 14830:1 17624:1 18307:1 18494:1 20296:1 
0.04855284325704384 0.3172099516401434 3266:1 3552:1 4877:1 5009:1 5094:1 5409:1 5701:1 5767:1 6911:1 7892:1 12639:1 12977:1 13411:1 14051:1 14090:1 15075:1 15152:1 15441:1 15837:1 15854:1 16066:1 16656:1 17624:1 17813:1 20048:1 
0.04922780899075346 0 822:1 1695:1 2413:1 3583:1 3786:1 5213:1 5977:1 9823:1 9952:1 10125:1 11029:1 11041:1 11358:1 11730:1 12158:1 12656:1 12977:1 15491:1 16578:1 17626:1 18306:1 19255:1 19481:1 19635:1 19915:1 
0 0.2641908246220898 462:1 822:1 3583:1 5863:1 5878:1 5954:1 5977:1 6651:1 6802:1 8855:1 10508:1 11041:1 11047:1 11824:1 11939:1 11959:1 12340:1 16649:1 16733:1 19046:1 19481:1 19915:1 
0 0.323175100394359 144:1 822:1 1048:1 1090:1 1453:1 3934:1 4213:1 5094:1 5977:1 6625:1 7790:1 12872:1 13129:1 13701:1 14343:1 15152:1 16692:1 17624:1 
0.1084496654037151 0.1178147949527368 822:1 1362:1 2932:1 3955:1 5094:1 6328:1 6802:1 8056:1 9823:1 11032:1 12535:1 12781:1 14165:1 14366:1 14548:1 14734:1 15152:1 15500:1 18129:1 19379:1 19556:1 19993:1 
0.1265961446921802 0.8168039418844052 5698:1 6519:1 7527:1 9823:1 10510:1 12844:1 12977:1 19757:1 20055:1 
0.03328608165304847 0 144:1 1762:1 2341:1 2561:1 5376:1 5977:1 6732:1 6936:1 7274:1 8444:1 8601:1 10145:1 11114:1 12298:1 12907:1 12977:1 13879:1 15500:1 16045:1 17624:1 17841:1 
0.143625355083038 0.04029585758666701 914:1 1790:1 2563:1 2894:1 4810:1 5591:1 5838:1 6257:1 6393:1 6667:1 6902:1 7196:1 7315:1 11350:1 12632:1 13206:1 14631:1 14862:1 15374:1 16159:1 16493:1 16697:1 18397:1 18742:1 
0 0.05083727324819617 2009:1 2456:1 3692:1 5105:1 5361:1 5977:1 6802:1 7315:1 7423:1 7527:1 8887:1 10849:1 12130:1 12977:1 13564:1 13891:1 14919:1 15096:1 15460:1 17870:1 18129:1 18245:1 18742:1 
0 0.8183396279340313 2443:1 2456:1 2561:1 5322:1 5698:1 6802:1 7892:1 8491:1 10508:1 11032:1 11939:1 12659:1 12977:1 14366:1 15152:1 19575:1 
0.003693729382329296 0.1036964406374941 799:1 822:1 1048:1 1265:1 2230:1 2890:1 3409:1 4783:1 5977:1 7559:1 9614:1 10508:1 11032:1 11114:1 12977:1 14189:1 14296:1 16421:1 18166:1 18307:1 19258:1 19481:1 19725:1 
0.3191609960462254 0.4257682856059845 1048:1 2339:1 2561:1 3164:1 3659:1 5259:1 5977:1 6425:1 7233:1 7292:1 7527:1 7915:1 8779:1 9533:1 10508:1 11032:1 11041:1 11047:1 11711:1 12340:1 12970:1 14881:1 15152:1 17510:1 17644:1 18712:1 
0.2924978212294034 0.02948602149213701 485:1 822:1 894:1 1438:1 1679:1 1960:1 2444:1 3119:1 3506:1 4508:1 5094:1 5977:1 5996:1 7527:1 9952:1 10508:1 11029:1 11738:1 12436:1 12977:1 15152:1 15421:1 16468:1 16812:1 
0.01219920576001206 0 190:1 822:1 1048:1 2029:1 3179:1 3327:1 4267:1 5977:1 6802:1 6965:1 8445:1 11029:1 14366:1 15096:1 15759:1 16248:1 17074:1 17629:1 17683:1 17813:1 
0 0.1106354680003725 822:1 1265:1 1391:1 1915:1 2456:1 2561:1 3299:1 4142:1 5399:1 5977:1 8016:1 8734:1 9383:1 9926:1 11041:1 12753:1 12977:1 14142:1 14366:1 14865:1 15514:1 17074:1 17913:1 18738:1 
0.04234463089767115 0.4433274162754507 621:1 856:1 2561:1 2575:1 5094:1 5193:1 5977:1 6802:1 7435:1 8612:1 9290:1 10049:1 11041:1 13126:1 18981:1 
0.1923284471612628 0.1705549007315494 1048:1 1746:1 1829:1 2456:1 2551:1 4515:1 5094:1 6174:1 6672:1 7892:1 10879:1 11458:1 11656:1 12623:1 13202:1 14851:1 15667:1 15951:1 16624:1 17855:1 18605:1 19171:1 
0.2678591579226966 0.4829772773019266 822:1 1048:1 1265:1 1753:1 2413:1 2561:1 2964:1 3780:1 5094:1 5554:1 8021:1 9200:1 10508:1 11114:1 16081:1 16692:1 17854:1 18624:1 18877:1 19258:1 
0 0.2740726144191703 293:1 822:1 1288:1 1781:1 2456:1 4026:1 5977:1 9243:1 10448:1 12340:1 16692:1 17074:1 18307:1 18604:1 20247:1 
0.1565001580593599 0 822:1 2873:1 4515:1 5389:1 5977:1 6802:1 8669:1 11041:1 13524:1 15441:1 15575:1 17813:1 19169:1 
0 0.04143612531424102 1048:1 1343:1 2456:1 2561:1 2925:1 5790:1 5977:1 6802:1 7786:1 9108:1 9391:1 12977:1 13815:1 13891:1 14366:1 14919:1 15345:1 16494:1 16621:1 17074:1 17296:1 17865:1 18664:1 
0.07876465204421118 0.3613043395044226 139:1 166:1 241:1 799:1 1576:1 2378:1 2413:1 5094:1 5977:1 5989:1 7892:1 8173:1 9823:1 11039:1 11247:1 12215:1 12882:1 13365:1 15208:1 17030:1 17483:1 17629:1 17644:1 17865:1 18348:1 18512:1 20030:1 
0 0.01149307255974261 728:1 1048:1 1303:1 1734:1 2456:1 4149:1 4788:1 5239:1 5444:1 5977:1 6771:1 8705:1 10266:1 10508:1 11436:1 11924:1 12860:1 13927:1 15759:1 17367:1 17624:1 17629:1 18360:1 18664:1 18822:1 
0 0.04830042823706721 754:1 799:1 822:1 2413:1 2795:1 6239:1 6721:1 6911:1 7818:1 8141:1 10430:1 10508:1 11924:1 12157:1 12290:1 12971:1 13728:1 15500:1 15677:1 15881:1 16656:1 17008:1 17074:1 17278:1 17629:1 18722:1 
0 0.6216305420530535 1200:1 2377:1 2413:1 2561:1 3888:1 4430:1 5300:1 5977:1 6519:1 8734:1 9952:1 11041:1 11853:1 13126:1 15500:1 17624:1 17841:1 18307:1 19532:1 20238:1 
0 0.1289876152008204 1048:1 1695:1 2561:1 3247:1 3783:1 5977:1 7527:1 9952:1 10508:1 11512:1 11766:1 11807:1 12011:1 12277:1 12872:1 13123:1 15172:1 15305:1 15667:1 16718:1 17296:1 18231:1 19258:1 
0.01363219787112751 0 1048:1 1284:1 2048:1 2561:1 5977:1 6802:1 7299:1 8637:1 8757:1 9108:1 11558:1 11924:1 12130:1 12403:1 12977:1 13211:1 17037:1 17629:1 17924:1 
0.2151711764408629 0.3294512692547819 1028:1 2881:1 7818:1 11692:1 13015:1 13207:1 14366:1 14995:1 17074:1 18197:1 18542:1 19840:1 
0.3924579663253225 0.6634962300472498 564:1 822:1 2413:1 2450:1 3185:1 5977:1 6970:1 7298:1 7913:1 9796:1 10508:1 11041:1 11053:1 11862:1 13637:1 14807:1 16303:1 17770:1 19713:1 
0 0.06511206612692576 822:1 1576:1 3128:1 4859:1 5094:1 5376:1 5977:1 6268:1 6519:1 6822:1 7527:1 9248:1 10145:1 11041:1 11727:1 11782:1 12977:1 13459:1 16067:1 16414:1 17517:1 17624:1 
0 0.1952233612131815 144:1 621:1 822:1 1048:1 1265:1 2456:1 5977:1 6218:1 6865:1 10399:1 10508:1 11029:1 11041:1 11114:1 11576:1 13764:1 14919:1 15500:1 18102:1 19255:1 19532:1 20029:1 
0.05555543914723422 0 822:1 1048:1 1103:1 1662:1 2339:1 3271:1 3284:1 4078:1 5374:1 5977:1 6143:1 6667:1 7892:1 10455:1 10508:1 10888:1 11041:1 11711:1 12535:1 13459:1 15179:1 15724:1 15750:1 18129:1 18307:1 
0.3804172352291992 0.5484076014837094 205:1 822:1 1048:1 3759:1 4872:1 5977:1 6108:1 6822:1 7387:1 7892:1 11273:1 12002:1 12100:1 13653:1 16692:1 17114:1 17624:1 17644:1 18648:1 
0 0.235314437796053 822:1 1434:1 1560:1 2453:1 2561:1 2691:1 3583:1 5094:1 5977:1 6822:1 8601:1 8887:1 9823:1 11458:1 11692:1 13994:1 15442:1 
0 0.1200076799053845 1048:1 1265:1 1505:1 2956:1 5094:1 5977:1 6526:1 7194:1 8140:1 10117:1 11041:1 11114:1 11247:1 11753:1 12977:1 13815:1 17522:1 17624:1 19660:1 
0.5997414318967195 1 822:1 1048:1 1265:1 2348:1 2460:1 3271:1 5394:1 5698:1 5977:1 6822:1 9823:1 11114:1 14995:1 15854:1 16812:1 17629:1 
0.002126407526419612 0.3980941311853893 815:1 1090:1 1560:1 1927:1 2561:1 2773:1 3659:1 5977:1 7962:1 8590:1 9088:1 9273:1 12340:1 13994:1 14421:1 15690:1 17310:1 17624:1 18245:1 19863:1 
0.1134332807201817 0.5399473914948358 728:1 799:1 5977:1 6667:1 9206:1 10049:1 10103:1 11041:1 12226:1 14919:1 15005:1 17907:1 
0.02806614476306389 0.5403077547392543 1914:1 2456:1 3299:1 5259:1 6802:1 12122:1 12977:1 14366:1 17629:1 18517:1 19808:1 20192:1 
0.1027014575364935 0.03290053829675301 620:1 822:1 2429:1 2561:1 3759:1 4010:1 4213:1 4656:1 5094:1 5977:1 6108:1 6177:1 6474:1 6822:1 7928:1 9454:1 10508:1 10712:1 10902:1 11914:1 13736:1 13815:1 16692:1 17644:1 19318:1 
0 0.09458993518108159 1048:1 1800:1 2413:1 2456:1 3314:1 6056:1 6802:1 7423:1 7965:1 8271:1 8590:1 9978:1 10093:1 10458:1 11047:1 12340:1 14623:1 15084:1 15096:1 15689:1 17897:1 18998:1 20297:1 
0 0.04439855639483316 1052:1 1265:1 1358:1 2413:1 4515:1 5320:1 6190:1 6217:1 6347:1 6469:1 7892:1 9533:1 9796:1 10399:1 10499:1 11041:1 14366:1 14881:1 15539:1 17074:1 17437:1 17841:1 18245:1 18414:1 19873:1 20029:1 
0 0.3173700871723225 2348:1 5399:1 5985:1 6802:1 7997:1 9823:1 10510:1 11738:1 12782:1 13207:1 14366:1 14995:1 15500:1 17074:1 18158:1 18287:1 
0 0.04363848672740707 1800:1 2413:1 2456:1 3314:1 5105:1 6670:1 7423:1 8019:1 8590:1 9978:1 10093:1 10458:1 12130:1 12340:1 15084:1 15096:1 15667:1 15854:1 17624:1 17897:1 18129:1 18998:1 20297:1 
0 0.7555551299158519 2456:1 2779:1 3602:1 4961:1 5094:1 5977:1 7782:1 9994:1 12340:1 15854:1 16932:1 
0 0.116177713338223 822:1 3255:1 3934:1 3989:1 5280:1 7527:1 8010:1 9952:1 11041:1 12340:1 16777:1 17140:1 17522:1 17670:1 19704:1 
0.09479037379152645 0.4354716967206834 2561:1 3119:1 3583:1 5094:1 6177:1 6802:1 7527:1 8590:1 8789:1 9823:1 9952:1 10263:1 10340:1 11041:1 11853:1 13083:1 15500:1 16468:1 16473:1 17296:1 17373:1 17670:1 17894:1 17899:1 18211:1 
0 0.03169247994280434 144:1 822:1 1048:1 1453:1 2413:1 3934:1 5668:1 6526:1 7292:1 7423:1 7892:1 8269:1 10508:1 10898:1 12157:1 12322:1 12340:1 15667:1 16895:1 17624:1 18994:1 19258:1 
0.08730100324153933 0.06503785306611974 144:1 822:1 1343:1 1960:1 2230:1 2456:1 4788:1 5094:1 5977:1 6732:1 7892:1 8271:1 11029:1 12215:1 13015:1 13229:1 17670:1 18509:1 20030:1 
0.199866148158153 0.142500059165975 260:1 623:1 822:1 1025:1 1048:1 1265:1 2413:1 2939:1 4957:1 5009:1 6667:1 6822:1 7037:1 7892:1 9034:1 9952:1 10508:1 11029:1 12578:1 12977:1 13656:1 15475:1 16879:1 17074:1 19376:1 
0 0.09688467054328039 1024:1 2561:1 5094:1 6802:1 7527:1 9473:1 10045:1 10558:1 13038:1 13083:1 17074:1 17628:1 18542:1 19915:1 
0 0.0077706869050118 710:1 822:1 2241:1 2456:1 2561:1 3583:1 3693:1 5977:1 6802:1 8004:1 8775:1 9595:1 9952:1 10420:1 11029:1 11041:1 12340:1 13719:1 14456:1 15481:1 18579:1 
0 0.2499241541460301 2413:1 2561:1 2737:1 5094:1 5447:1 5469:1 5977:1 8135:1 8887:1 12423:1 12659:1 12977:1 13719:1 15581:1 15667:1 15727:1 15854:1 16069:1 17074:1 17624:1 18552:1 18958:1 20273:1 
0.07277118598491535 0.218918332684155 2561:1 3659:1 5977:1 6699:1 6709:1 7505:1 7892:1 8590:1 9035:1 9489:1 11347:1 11692:1 12340:1 15515:1 17074:1 17334:1 17624:1 19013:1 19028:1 
0.09136679008328211 0.5218073212389036 1315:1 1753:1 4191:1 5094:1 5977:1 6810:1 7283:1 7954:1 8321:1 9042:1 9231:1 9408:1 9533:1 9823:1 11862:1 13581:1 14881:1 15152:1 15500:1 15637:1 15762:1 16005:1 16274:1 17074:1 17629:1 18306:1 
0 0.1716686486880779 822:1 2561:1 3692:1 5399:1 5425:1 6802:1 7725:1 8757:1 8825:1 9108:1 9369:1 10508:1 11032:1 11041:1 13305:1 13699:1 15692:1 17074:1 17826:1 18708:1 19567:1 19934:1 
0.1763779500126853 0.6841495928336757 822:1 2561:1 3393:1 4849:1 5977:1 7818:1 8271:1 9823:1 10145:1 17624:1 18245:1 20070:1 
0.2377767256948627 0.3118433258604392 33:1 822:1 1048:1 1265:1 2413:1 3955:1 5094:1 5977:1 6177:1 6836:1 7818:1 10510:1 11032:1 11482:1 13128:1 15737:1 16692:1 17042:1 19258:1 19725:1 
0 0.2585841821246161 822:1 2737:1 2881:1 4197:1 4487:1 5094:1 5323:1 5591:1 5977:1 6033:1 6667:1 6802:1 12682:1 13563:1 14407:1 15152:1 16578:1 17624:1 18307:1 18495:1 18542:1 18816:1 20102:1 
0 0.556555873954181 799:1 1048:1 1265:1 2460:1 2561:1 3017:1 3667:1 4564:1 5094:1 5977:1 9743:1 11110:1 12977:1 13764:1 14325:1 14574:1 15096:1 19258:1 
0.01761562468865503 0.5030076966892715 799:1 822:1 1214:1 1265:1 1415:1 4431:1 5977:1 8261:1 10508:1 12340:1 12753:1 15500:1 15854:1 16692:1 17624:1 
0 0.1076439282651764 1024:1 2413:1 3021:1 5701:1 9851:1 10043:1 10399:1 10508:1 11424:1 11943:1 15075:1 15567:1 15667:1 17074:1 
0.0615897128218025 0.2318664587935922 64:1 144:1 822:1 1048:1 2201:1 2799:1 3035:1 3392:1 3825:1 4130:1 5094:1 5700:1 5977:1 7423:1 7527:1 7661:1 7892:1 10818:1 11458:1 11613:1 14807:1 15195:1 17074:1 17383:1 17629:1 
0.01502263821205743 0.1084405714573196 259:1 728:1 2226:1 2241:1 2413:1 3461:1 4873:1 5035:1 5977:1 6357:1 6802:1 7020:1 8386:1 11041:1 
0 0.9096443515150608 144:1 822:1 1915:1 2561:1 6802:1 7088:1 9410:1 9671:1 10508:1 10902:1 11032:1 11448:1 11558:1 12977:1 15953:1 19481:1 
0.3636067414416927 1 1576:1 2561:1 3602:1 5977:1 6033:1 6527:1 6802:1 7818:1 7993:1 8590:1 11029:1 11032:1 12157:1 12186:1 12977:1 12979:1 15500:1 16336:1 16417:1 17624:1 18307:1 
0.1162121706773806 0.3147896703489493 822:1 1036:1 1756:1 1830:1 2456:1 2561:1 3119:1 3583:1 3659:1 3953:1 5094:1 5977:1 6172:1 7818:1 8887:1 8952:1 9533:1 10980:1 11029:1 11711:1 14881:1 15472:1 17074:1 17266:1 
0 0.02755529413376075 822:1 2561:1 3128:1 3602:1 3759:1 3934:1 6108:1 6822:1 7208:1 7892:1 9823:1 12002:1 12061:1 14366:1 18245:1 18307:1 
0 1 3255:1 5094:1 6802:1 7527:1 7661:1 9952:1 10508:1 11853:1 13083:1 
0.04004786814688394 0.4179621267996228 822:1 1048:1 2881:1 4674:1 4859:1 5347:1 5376:1 5977:1 6309:1 7818:1 9204:1 9572:1 10066:1 10145:1 10263:1 11041:1 11458:1 12939:1 14706:1 15689:1 15737:1 16692:1 17037:1 17629:1 17907:1 19514:1 20055:1 
0.08951734798761403 0.1795329176194792 620:1 822:1 2456:1 2561:1 3299:1 5977:1 5996:1 6056:1 8138:1 8590:1 9583:1 9787:1 10554:1 11041:1 11273:1 11627:1 12340:1 13392:1 16336:1 17813:1 18908:1 19584:1 
0.1820844142341235 1 268:1 822:1 2227:1 6802:1 11032:1 12130:1 
0 0.13954506676415 822:1 1554:1 3483:1 3659:1 4750:1 5009:1 5094:1 5977:1 6172:1 7423:1 8637:1 8767:1 10508:1 11150:1 12977:1 13015:1 15689:1 17507:1 17624:1 
0 0.3877881204555975 203:1 822:1 1753:1 2377:1 2456:1 2881:1 3583:1 3602:1 5094:1 5977:1 5985:1 7908:1 9108:1 10508:1 12707:1 13062:1 13382:1 14919:1 15096:1 16067:1 16628:1 17624:1 17826:1 18664:1 20029:1 
0 0.2020937855840239 412:1 5977:1 6177:1 7152:1 7435:1 7954:1 8185:1 9045:1 10658:1 11032:1 11853:1 12729:1 14366:1 15818:1 18307:1 19532:1 20238:1 20273:1 
0.5757002472003687 0.4745526068311773 64:1 5094:1 5415:1 5977:1 6177:1 6822:1 7165:1 7423:1 7435:1 7760:1 8057:1 14040:1 15592:1 17624:1 
0.04879997489991864 0 376:1 3583:1 3979:1 4674:1 5977:1 7298:1 10145:1 11029:1 11495:1 13331:1 16416:1 16692:1 
0.04360015230621124 0 822:1 1434:1 3299:1 5094:1 5320:1 6009:1 6707:1 7074:1 7423:1 7527:1 8271:1 9823:1 9952:1 10508:1 11481:1 11692:1 12029:1 12977:1 18494:1 
0.1438419861508438 0.2034572333472511 545:1 2409:1 5094:1 5535:1 6802:1 7279:1 10620:1 11388:1 12427:1 12977:1 16642:1 18129:1 
0.1448446245394497 0.280987136130591 822:1 1048:1 1434:1 2201:1 2413:1 3045:1 3309:1 3327:1 3915:1 5977:1 7837:1 7892:1 9823:1 10508:1 11032:1 11041:1 11121:1 11692:1 12002:1 12339:1 12762:1 16174:1 17624:1 17683:1 18307:1 19341:1 
0.03093356915808514 0.04197996033580504 822:1 914:1 1107:1 2542:1 2737:1 3659:1 4330:1 6026:1 6667:1 7279:1 7527:1 8018:1 8454:1 10443:1 10508:1 11711:1 12340:1 13764:1 14026:1 16447:1 16526:1 17074:1 17089:1 17530:1 19034:1 
0 0.06336247132545177 3583:1 3769:1 3827:1 5977:1 6266:1 6793:1 6802:1 8059:1 9586:1 9966:1 10120:1 10508:1 12106:1 12977:1 13126:1 13815:1 14093:1 14174:1 17074:1 17629:1 19157:1 19765:1 19915:1 
0 0.1022026731570441 822:1 2202:1 2241:1 2413:1 2449:1 3382:1 5094:1 5977:1 6527:1 6822:1 7342:1 7527:1 8321:1 9328:1 9823:1 9851:1 10508:1 11711:1 15500:1 15575:1 15677:1 17074:1 17629:1 17813:1 
